15836 10
</s> 0.034019 0.000193 -0.029246 -0.008267 0.023041 -0.004052 -0.021120 -0.032295 -0.038387 -0.026422 
<BoL> -0.077890 0.581146 -0.177185 -0.096164 -0.232713 -0.022031 0.329403 -0.077395 -0.124289 -0.075823 
<EoL> -0.019581 0.572493 -0.221760 -0.135185 -0.158423 0.071867 0.324521 -0.040214 -0.041411 0.013124 
. 0.000569 0.572493 -0.223357 -0.125748 -0.170069 0.094102 0.260148 -0.024672 0.056027 -0.045168 
the 0.047103 0.456954 -0.147405 0.040695 -0.286597 0.033905 0.186778 0.022123 -0.067523 0.124178 
a 0.012111 0.657547 -0.107852 -0.147782 -0.378429 0.123205 0.348598 -0.219111 -0.003561 -0.122036 
of -0.037325 0.651043 -0.442129 -0.203966 -0.133934 0.104436 -0.110186 -0.131843 0.101838 0.048313 
to 0.108976 0.471426 -0.029496 -0.192980 -0.234418 0.048296 0.336167 -0.049241 -0.184445 -0.016929 
, 0.336225 0.298017 -0.310932 -0.142370 -0.084271 0.155653 0.168255 -0.307219 0.091492 0.139890 
` -0.368146 0.640203 0.271041 -0.208214 0.154709 -0.090742 -0.021749 -0.613427 0.191617 0.087988 
: -0.131508 0.510393 0.606895 -0.165099 0.142542 -0.125048 0.237631 -1.165592 0.306491 -0.062778 
return -0.012810 0.631412 -0.190134 -0.177348 -0.405150 0.016652 0.234025 -0.213714 0.420294 0.036580 
and 0.052587 0.540225 -0.220567 -0.076554 -0.193700 0.018922 0.206078 0.050953 0.024822 -0.009239 
for -0.036034 0.562001 -0.145353 -0.002776 -0.061211 0.029738 0.153672 -0.041308 -0.173642 0.018246 
( 0.413207 0.272874 -0.389212 0.014072 0.099574 0.159446 0.235017 -0.326990 0.081790 -0.067010 
) 0.374957 0.293332 -0.607156 0.056335 0.194092 0.185823 0.184941 -0.398340 0.135779 -0.054873 
in 0.024433 0.628888 -0.130083 -0.184407 -0.172554 0.195347 0.055732 -0.086141 0.095723 0.201783 
an -0.189373 0.602866 -0.009992 -0.445551 -0.159047 0.073074 0.285173 -0.283149 0.159271 0.035159 
this -0.132610 0.563058 -0.067887 -0.143111 -0.194479 0.472830 0.605936 -0.234450 -0.188009 0.310957 
from -0.027863 0.756333 -0.144856 -0.073841 -0.231038 0.021431 0.483947 0.070193 0.066384 -0.430393 
is 0.196707 0.017575 -0.135124 -0.222815 -0.089515 0.283417 0.608702 -0.379272 0.048982 0.645525 
given -0.264938 0.712463 -0.372046 -0.159531 -0.240693 0.118587 0.101510 -0.042168 0.126378 0.123031 
returns -0.229162 0.617224 -0.446410 -0.269203 -0.128466 0.184110 0.098668 -0.254434 0.229527 0.316062 
with -0.153469 0.605646 -0.182766 -0.140799 -0.145730 0.040508 0.136323 -0.221896 0.036815 0.116580 
if 0.188155 -0.053496 -0.054252 -0.300976 -0.169296 0.314529 0.829724 -0.385703 0.275960 0.809082 
<BoNUM> 1.084690 0.631400 0.073926 -0.781327 1.031389 0.975907 -0.091127 -0.163648 0.461434 -0.272840 
<EoNUM> 1.170573 0.705899 0.010455 -0.748896 1.058179 1.002368 -0.249120 -0.192476 0.579671 -0.135750 
or 0.129520 0.491275 -0.224328 -0.210234 -0.270457 0.384896 0.389057 -0.548919 0.203845 0.153382 
that 0.118117 0.152633 -0.057445 -0.211225 -0.342119 0.215585 0.217953 -0.165799 -0.384292 0.519279 
by -0.145426 0.737633 -0.394861 0.010940 0.001235 0.472075 0.567450 -0.148970 0.023351 0.161035 
object -0.127566 0.639947 0.258854 -0.198420 -0.370151 0.060742 0.353917 -0.159843 0.267620 -0.013043 
as 0.189322 0.554142 -0.016351 -0.265970 -0.391903 0.217021 0.340522 -0.326533 0.218911 0.019346 
list 0.033289 0.745307 -0.243106 0.126550 -0.545628 0.401911 -0.264140 -0.500374 0.003192 0.172579 
function -0.017580 0.198720 -0.185838 -0.064770 0.004681 0.125535 0.255469 -0.290580 -0.562247 0.093993 
data -0.148378 0.726734 0.114051 -0.219164 -0.236209 0.020284 0.287156 0.012009 0.179858 -0.133665 
string 0.439826 0.515626 0.090562 -0.213788 -0.641740 0.231306 0.044130 -0.525416 0.157624 -0.490824 
set 0.025845 0.587677 -0.122980 0.155930 -0.147276 0.091054 0.086374 -0.136907 0.158475 0.140779 
value -0.056239 0.559639 -0.362454 -0.157898 -0.225848 0.224450 0.111593 -0.319736 0.351617 0.405978 
file 0.241664 0.568356 0.236843 -0.177292 -0.620954 -0.035662 0.765331 0.005126 0.362022 -0.604706 
all 0.007692 0.491262 -0.204668 0.126411 -0.331958 0.050125 -0.183705 -0.053569 -0.076751 0.475536 
on -0.009441 0.462455 -0.223482 0.003201 -0.011144 0.023908 0.258826 0.236385 -0.214478 0.115892 
get -0.038182 0.533751 -0.035723 0.189049 -0.090419 0.132919 0.225401 -0.198673 0.032970 -0.001546 
' 1.100358 -0.014506 -0.264717 0.335905 0.054720 0.370793 0.164435 -1.063683 0.469096 -0.094738 
class -0.466634 0.721244 0.621321 0.074787 -0.122249 -0.083409 0.228843 -0.620891 0.059218 0.086876 
method -0.417037 0.759498 0.021947 0.460949 0.159821 0.967588 1.232692 -0.325720 -0.506452 0.263833 
be 0.076741 0.016216 -0.075281 -0.301905 -0.456358 0.384836 0.221823 -0.529150 -0.609773 0.707384 
new -0.310407 0.805180 -0.008973 -0.010301 -0.235338 -0.134102 0.102919 -0.119516 0.321964 0.153650 
name 0.085541 0.465106 0.195026 0.167370 -0.596430 0.014066 0.048056 -0.449397 0.464706 0.387262 
into 0.038323 0.871555 -0.182925 -0.364456 -0.415782 0.178703 0.226089 -0.103699 0.065282 -0.456759 
it 0.183545 0.082883 0.037785 -0.302449 -0.392428 0.117555 0.650420 -0.269066 -0.117104 0.477475 
create -0.305947 0.792686 0.294342 0.072657 -0.097595 0.037633 0.327596 -0.170971 0.225715 -0.073084 
x 0.166681 0.465205 -1.210924 0.392775 0.770766 0.114316 0.115886 -0.423898 0.442753 0.114820 
array -0.517003 1.023209 -0.628484 -0.737045 0.095294 0.098462 0.065020 -0.174532 0.392888 0.048769 
values -0.142762 0.835828 -0.580013 -0.233366 -0.271665 0.238796 -0.334769 0.022871 0.224231 0.406001 
type -0.066865 0.588992 0.031579 -0.311467 -0.300886 0.157541 0.313965 -0.678542 0.330580 0.212462 
1 1.009723 0.826407 -0.019319 -0.770844 1.295637 1.183888 -0.055917 -0.145934 0.750698 0.045514 
default -0.471184 1.166773 0.531131 1.610157 0.386349 1.395471 1.133596 -0.360359 -0.260479 0.625859 
request -0.901592 1.394968 1.145107 1.706314 0.975373 1.371240 1.474906 0.053633 -0.568086 0.565683 
not 0.160081 -0.142097 -0.106946 -0.482747 -0.301429 0.334151 0.566222 -0.427806 0.029296 1.082072 
specified -0.241575 1.205930 -0.438752 0.516236 -0.294667 0.793948 0.204610 -0.061221 0.023108 0.150667 
current -0.221121 0.912242 0.454106 0.415239 0.630462 0.213859 0.086251 -0.359341 0.172365 -0.068814 
are 0.270442 0.103594 -0.314386 -0.252370 -0.220355 0.239396 -0.099600 -0.145427 -0.195681 0.911931 
instance -0.286628 0.818705 0.472775 -0.044376 -0.172010 -0.010506 0.299230 -0.398507 0.522042 0.149405 
true -0.039387 0.030820 -0.302045 -0.342092 -0.149854 0.227734 0.584991 -0.470990 0.656860 1.098276 
[ 0.980220 0.450845 -0.878987 0.466484 0.352804 0.595650 0.027323 -1.130888 0.290349 -0.547875 
using -0.074751 0.663006 -0.184881 -0.240530 0.079785 0.059867 0.340083 -0.017558 -0.046546 -0.293541 
] 1.008328 0.453759 -0.948011 0.600587 0.486524 0.534041 0.171709 -1.163433 0.599322 -0.563578 
> 0.627012 0.779455 0.070810 0.716068 1.260835 0.837561 -0.286290 -1.107731 0.665147 0.036421 
path 0.179581 0.273400 0.013309 0.113037 -0.726325 -0.146177 0.639267 -0.370914 0.444930 -0.047118 
number 0.263991 0.572771 -0.376178 -0.233786 -0.207723 0.467044 -0.029121 -0.198287 0.154575 0.102140 
add -0.221830 0.402597 0.068518 0.067828 -0.170820 -0.154340 0.147272 -0.147489 0.059881 0.238687 
key 0.155777 0.516129 -0.118410 0.216604 -0.493079 0.159804 0.075382 -0.467800 0.565868 0.374183 
convert 0.087927 0.813888 -0.059885 -0.542129 -0.319120 0.279786 0.107901 -0.312460 0.032138 -0.603932 
at 0.204444 0.512865 -0.775614 0.067585 -0.074988 0.231571 0.203453 -0.048277 0.039579 0.107169 
2 0.937840 0.744223 -0.060462 -0.772968 0.955362 0.727023 -0.198066 0.078103 0.603116 -0.228457 
which 0.068780 0.256183 -0.180150 -0.113926 -0.293319 0.082781 0.136732 -0.268380 -0.254820 0.565671 
element -0.357560 0.727856 -1.060785 -0.242830 0.171690 0.140721 -0.199915 -0.167934 0.439486 0.405486 
one -0.015267 0.452991 -0.423178 -0.188654 -0.241403 0.167217 0.136178 -0.184805 -0.048836 0.539824 
node -0.342948 0.602200 -0.168694 0.614126 -0.082278 0.374025 0.200387 -0.620260 0.307279 0.710698 
input -0.538208 0.878269 -0.827292 -0.652629 0.127777 0.090004 0.068728 0.024043 0.125754 0.124433 
n 0.246586 0.235425 -0.578916 -0.336192 0.130336 0.234919 0.330083 -0.173664 0.230481 0.399002 
matrix -0.526737 0.782884 -0.912932 -0.662816 0.617283 -0.104815 0.151593 0.087843 -0.371741 -0.267463 
http -0.717650 1.711594 1.878288 1.080952 1.228103 1.052558 0.802929 -0.444970 -0.053244 0.047453 
0 1.424133 0.519923 -0.080011 -0.477234 1.303002 0.989923 -0.738130 -0.267363 0.486899 0.014534 
each -0.134415 0.779635 -0.751311 0.127629 -0.102658 0.022205 -0.331632 0.180698 -0.037285 0.234512 
index 0.046617 0.755878 -0.511266 0.105718 -0.254408 0.142160 -0.251575 -0.122452 0.392265 0.217283 
- 0.642157 0.867608 -0.357919 -0.391813 1.103318 1.132305 -0.018534 -0.487232 0.792900 0.494588 
param -0.098769 0.294108 0.512484 0.419163 -0.177012 -0.253372 0.367373 -1.151371 0.266699 0.024302 
self 0.044175 0.230223 -0.386494 -0.090989 -0.012072 0.022681 0.185121 -0.372895 0.278957 0.502978 
compute -0.186059 0.610435 -0.961874 -0.198634 0.382425 0.095132 0.047140 0.258508 -0.474357 -0.180960 
python 0.452905 0.434392 0.356637 -0.328775 -0.374599 0.283971 0.114886 -0.427754 0.008180 -0.236231 
used 0.039539 0.250737 0.040891 -0.101799 -0.179498 0.286626 0.182111 -0.206717 -0.491603 0.372953 
check 0.136214 0.049560 -0.016400 -0.309013 -0.267171 0.193655 0.580026 -0.246380 0.051448 0.718245 
text 0.381318 0.551705 0.002255 0.348767 -0.554300 -0.166744 -0.037957 -0.058802 0.302815 -0.200921 
{ 0.716902 -0.103788 -0.365052 0.675627 0.639101 -0.344904 0.950816 -0.621176 0.819686 -0.264669 
when 0.308936 -0.289847 -0.107016 0.012465 -0.100371 0.266153 0.512302 -0.233695 -0.405218 0.776188 
} 0.981986 -0.062135 -0.252184 0.871680 0.530442 -0.491570 0.828771 -0.532836 1.127042 -0.361325 
read 0.043321 1.003658 0.403006 0.517955 -0.387168 0.754457 1.035709 0.496583 -0.072435 -0.281143 
A -0.080119 0.256060 -0.167781 -0.072916 0.183398 -0.063013 0.145012 -0.475417 -0.550226 0.013644 
i 0.460506 0.293456 -0.343013 0.393013 0.132412 0.352994 0.332766 -0.800507 0.268388 -0.139052 
any 0.111530 0.239189 -0.075712 -0.063802 -0.228565 0.216943 0.295595 -0.249979 -0.030889 0.592726 
image -0.304406 0.842202 0.013089 -0.524904 0.431757 -0.329325 0.419033 0.203567 0.437896 -0.479657 
format 0.296544 0.719973 0.081703 -0.175094 -0.466703 0.199359 0.244458 -0.111123 0.170499 -0.501043 
whether 0.153657 0.174719 -0.177396 -0.477684 -0.251779 0.444813 0.664240 -0.150761 0.117692 0.750955 
makes -0.864501 1.552504 0.789087 1.860395 0.289098 1.579089 1.400409 0.006651 -0.697991 0.561419 
its -0.002766 0.489068 -0.105459 0.037138 -0.332842 -0.046360 0.204802 -0.143883 0.213873 0.308439 
sequence 0.022564 0.663293 -0.492544 -0.129614 -0.446863 0.268125 -0.324601 -0.253090 0.106789 0.168612 
dictionary -0.029187 0.642243 -0.057567 0.160995 -0.579147 -0.042815 -0.248671 -0.305639 0.238473 0.131970 
line 0.444273 0.537735 -0.279083 0.372087 -0.330697 -0.039646 -0.254245 0.302800 -0.114114 -0.097245 
called 0.136881 -0.437670 -0.018706 0.280370 -0.098744 0.209478 0.722736 -0.065072 -0.703964 1.054420 
< 0.096490 0.899021 0.322144 0.460627 1.861454 0.324777 -0.195746 -1.197134 0.508216 -0.030438 
two -0.178078 0.588462 -0.895562 -0.545758 0.105557 0.207280 -0.072344 0.115685 -0.433314 0.279351 
has 0.099849 -0.009357 -0.158720 -0.289533 -0.103791 0.305948 0.719550 -0.227969 -0.089842 0.959286 
use 0.232732 0.140962 0.236713 -0.078504 0.053491 0.128989 0.428895 -0.410237 -0.075851 0.175832 
representation 0.190141 0.951391 0.102381 -0.439728 -0.682367 0.279085 0.141966 -0.272638 0.274700 -0.718568 
can 0.152811 0.119155 0.038190 -0.518628 -0.331681 0.502611 0.215389 -0.410361 -0.522115 0.699325 
synchronous -0.353493 1.308703 1.348943 1.847856 0.209898 2.065184 1.650796 0.097905 -0.991918 0.696545 
model 0.481687 0.966541 -0.084533 -1.030191 1.271628 1.051233 0.437136 0.193927 1.047204 0.225661 
objects -0.239722 1.175967 -0.025688 0.320321 -0.384130 1.048199 -0.065166 -0.463115 -0.042738 0.525529 
dict 0.085903 0.612638 0.188311 0.159990 -0.590312 -0.052210 -0.129955 -0.563235 0.387351 0.020317 
code 0.232249 0.367292 -0.065839 -0.172167 -0.271440 0.221560 0.315094 -0.210517 -0.120633 0.005350 
y 0.330355 0.589536 -1.697475 0.909592 1.097951 0.241122 0.204296 -0.383172 0.894058 0.118606 
parse 0.274702 0.488063 0.179450 0.049003 -0.696809 0.025732 0.250508 -0.297705 0.145748 -0.352889 
table -0.025331 0.649679 -0.039986 0.389220 -0.548525 -0.276296 -0.296106 -0.088670 0.634113 0.429236 
error 0.291140 -0.094535 -0.070686 -0.240953 -0.156998 0.136133 0.874199 -0.228642 0.095801 0.376052 
remove 0.051219 0.457172 -0.283472 0.378161 -0.534854 -0.037749 -0.076469 -0.092689 0.261324 0.494679 
graph -0.280053 0.401539 -0.282360 0.074141 -0.104592 -0.149177 0.270673 -0.100692 -0.107652 0.325537 
s 0.374956 0.571958 -0.423999 0.260939 0.015293 -0.060463 0.255069 -0.086499 0.680377 -0.201363 
= 0.962483 0.384651 -0.876912 0.479416 1.282815 0.380176 -0.094080 -1.048280 0.840199 0.093622 
elements -0.541596 0.945473 -0.780649 -0.215712 -0.064571 0.019965 -0.620192 0.215962 0.144516 0.639372 
first 0.270216 0.636706 -0.547251 0.154105 -0.402089 0.288336 -0.061570 -0.153357 0.367638 0.325758 
message 0.444459 0.005095 0.435076 0.207059 -0.110306 0.128233 0.883238 -0.097330 0.043015 -0.005036 
f 0.115519 0.047978 -0.748356 -0.075781 0.772208 0.074936 0.422495 -0.489264 0.065157 0.317322 
time 0.647368 0.656037 -0.186048 0.124564 -0.314979 0.544875 -0.190879 -0.094195 -0.292116 -0.472673 
single 0.083341 0.716064 -0.295981 -0.025623 -0.422419 0.109691 0.062708 -0.041371 0.086297 -0.129358 
over -0.310108 0.773251 -0.691517 -0.049640 0.156109 0.009585 -0.419153 0.247867 0.055655 0.529417 
arguments -0.016669 0.376741 -0.289515 0.337116 -0.225796 0.211335 -0.254974 -0.376280 -0.396931 0.234747 
stream 0.360585 0.270588 0.046467 0.148344 -0.574922 0.146768 0.573011 0.148745 0.030535 -0.010023 
call 0.035576 0.207624 0.059309 0.235327 -0.041923 0.094774 0.340580 -0.213796 -0.531794 0.267170 
will 0.290224 0.111942 0.033730 -0.018093 -0.273925 0.209697 0.217590 -0.237752 -0.272141 0.609695 
test -0.049616 0.154623 -0.278398 -0.172998 0.119640 0.106490 0.515068 -0.026925 -0.118628 0.555023 
header 0.388812 0.643310 0.608982 0.235599 -0.328055 0.003759 0.342617 -0.355316 0.654472 -0.270881 
find 0.137402 0.444551 -0.495866 0.054411 -0.204827 0.070781 -0.166956 0.016434 -0.069713 0.261719 
write 0.361704 0.280071 0.356247 0.023583 -0.458774 -0.176811 0.887213 0.241970 0.177881 -0.487717 
where 0.096355 0.399110 -0.537879 -0.054903 -0.107349 0.044701 -0.063465 -0.363832 0.522110 0.669487 
between 0.011079 0.614222 -0.940443 -0.147452 0.286006 0.106628 -0.079036 0.293001 -0.280184 -0.021233 
but 0.358914 -0.098534 0.114863 -0.329807 -0.145405 0.150259 0.467990 -0.606175 -0.135679 0.640379 
tuple 0.173959 0.569322 -0.284902 -0.250031 -0.359003 0.184414 -0.118276 -0.673570 0.253333 -0.059609 
output -0.086079 0.555556 -0.326192 -0.023499 -0.223173 -0.025675 0.457589 -0.129761 -0.106076 -0.091788 
module 0.151300 0.320056 0.068049 -0.014090 -0.620452 0.210107 0.390231 -0.351736 0.100966 0.269090 
none 0.347253 -0.057585 -0.085104 -0.138245 -0.506249 0.388214 0.766329 -0.482462 0.576588 1.037063 
variable -0.098985 0.525121 -0.153368 -0.344604 -0.151628 0.164030 0.131225 -0.530525 0.282920 0.401669 
generate -0.003965 0.675788 -0.363172 0.141473 0.035657 0.049231 0.469947 -0.010533 -0.022886 -0.487067 
item 0.007268 0.572024 -0.522713 0.293732 -0.300456 0.211298 0.103262 -0.307220 0.623338 0.831248 
copy -0.273352 0.616462 -0.216343 -0.117823 -0.398222 -0.051328 0.061202 -0.014493 0.315661 0.231232 
bytes 0.773991 0.391025 0.167408 -0.401335 -0.610694 0.174820 0.583485 -0.102228 0.304560 -0.676561 
expression -0.330149 0.494033 0.050602 -0.102894 -0.358439 -0.156995 0.118971 -0.592775 0.427388 0.491452 
func -0.794805 0.797062 0.417316 0.221103 0.412633 0.338640 0.433873 -1.501366 -0.299119 0.300881 
based -0.068416 0.670141 -0.192558 0.174937 -0.009656 -0.315547 0.182829 0.363860 0.220816 -0.081360 
make -0.136669 0.207569 0.013451 -0.120877 -0.107640 -0.109573 0.293804 -0.185890 -0.159986 0.316971 
attribute -0.023569 0.288060 0.135697 0.064715 -0.427591 0.048162 0.247969 -0.462858 0.343729 0.640726 
update -0.454770 1.066270 0.157932 0.913450 0.081890 0.670128 0.446392 0.112756 -0.368789 0.346803 
same -0.096127 0.392236 -0.064251 -0.467238 -0.224777 0.134488 -0.044388 -0.485466 0.072435 0.788059 
context -0.132727 0.302855 0.116834 0.333544 -0.276738 0.009551 0.390111 -0.147620 -0.267523 0.439152 
column 0.080012 0.838874 -0.303246 0.208960 -0.132343 -0.164058 -0.767582 0.304459 0.497225 0.470089 
helper -0.135505 0.410563 0.075506 0.019291 0.071001 0.099480 -0.054812 -0.241871 -0.604460 0.015489 
event 0.030559 0.322671 0.388610 1.092711 -0.193628 0.358952 0.895700 0.211904 -0.317026 0.514051 
version 0.355291 0.444582 0.040125 -0.320690 -0.198130 0.380458 0.419171 -0.106978 0.123243 -0.147560 
only 0.205054 0.049423 -0.183684 -0.162136 -0.121717 0.249555 0.319137 -0.242434 -0.102912 0.781536 
defined 0.357357 1.101036 -0.126476 -0.648949 1.497619 1.267505 0.025148 -0.073336 0.818923 0.601966 
3 1.149835 0.774126 0.277249 -0.747874 1.191874 0.837022 -0.320105 -0.034598 0.511797 -0.198752 
other -0.186043 0.318172 -0.159971 -0.329771 -0.057113 0.164491 0.067237 -0.391565 0.322808 0.973381 
field 0.192297 0.509431 -0.170677 0.193937 -0.309576 0.167271 -0.201101 -0.697470 0.573621 0.319806 
axis -0.672203 1.134035 -1.002841 -0.516550 0.140914 0.072313 -0.229171 0.303639 0.259769 0.322202 
connection 0.247997 -0.070842 0.378215 0.233357 0.002053 -0.035700 0.788039 0.066637 -0.071765 0.376826 
size 0.233510 0.660852 -0.295386 0.019749 0.087962 0.032422 0.267846 0.134678 0.411981 -0.183772 
state -0.158578 0.375600 -0.096537 0.187907 -0.180823 0.017529 0.455513 0.039148 -0.053632 0.191294 
we 0.403029 -0.193967 -0.080799 -0.346480 -0.250224 0.235028 0.608951 -0.079389 -0.569983 0.704347 
parameters 0.058462 0.482796 -0.105208 0.157790 -0.152482 -0.016627 -0.051424 0.068259 -0.201050 0.188470 
user 0.314815 0.057052 -0.044978 0.282807 -0.158806 0.011737 0.377229 -0.100809 -0.218577 0.163134 
run 0.157568 -0.003011 -0.078868 0.238348 -0.215530 0.116639 0.404684 -0.184190 -0.693607 0.379874 
integer 0.190159 0.619897 -0.378776 -0.613163 0.021478 0.416434 0.169013 -0.607349 0.377314 -0.157187 
tensor -0.505970 0.946387 -0.522104 -0.703468 0.026994 -0.092899 0.144035 -0.286197 0.046612 -0.169431 
; 1.148183 0.269281 -0.173044 -0.123730 0.439539 0.587832 0.412406 -0.839276 0.637865 0.042626 
point 0.023064 0.488448 -0.784444 -0.057806 0.096715 -0.127091 0.155194 0.175467 0.260227 0.192004 
names 0.049913 0.581855 -0.082382 0.265153 -0.730068 -0.005298 -0.372604 -0.217461 0.221267 0.506134 
result 0.145355 0.339735 -0.375960 0.114264 -0.101259 0.180490 0.466303 -0.185391 0.226698 0.208138 
frame 0.007551 0.823566 -0.161908 -0.130918 0.039139 0.014613 -0.205187 0.432882 0.394677 0.046470 
load -0.012476 0.547519 0.261099 0.014278 -0.752713 -0.102361 0.564765 -0.077010 0.098037 -0.269051 
after 0.183313 -0.028731 -0.031636 0.122372 -0.152854 0.370792 0.435578 -0.185065 -0.503178 0.578225 
have 0.186223 0.063628 -0.239488 -0.275607 -0.169226 0.268793 0.158293 -0.189189 -0.303570 0.985343 
like 0.342879 -0.004235 0.264858 -0.280603 0.008076 0.168756 0.548403 -0.650883 0.139642 0.268769 
command 0.480624 0.119657 0.143196 0.553236 -0.377895 -0.094017 0.184967 -0.051954 -0.445660 -0.007948 
url 0.253628 0.253790 0.409874 0.298848 -0.402801 -0.124904 0.757368 -0.348998 0.330478 -0.168058 
py -0.529359 0.774481 0.496505 -0.479735 0.326407 0.004726 0.149218 -1.331923 0.078694 -0.097366 
tree -0.034781 0.519614 -0.045896 0.204364 -0.410906 -0.187656 -0.080647 -0.131777 0.273444 0.255913 
process 0.266113 -0.056672 0.012858 0.494663 -0.245533 -0.066371 0.335670 0.044617 -0.471309 0.390756 
containing 0.133832 0.809765 -0.305565 -0.153494 -0.579216 0.059258 -0.069762 -0.066497 0.372062 -0.233639 
creates -0.355012 0.800543 0.045907 -0.222734 -0.153374 -0.027090 0.520878 -0.122329 0.132835 -0.020880 
shape -0.347869 0.841876 -0.311278 -0.502088 0.073735 -0.054261 0.054335 -0.064303 0.433369 0.231841 
should 0.446483 -0.062221 0.021244 -0.001846 -0.327972 0.410143 0.251173 -0.242242 -0.375255 0.989146 
sets -0.064051 0.581804 -0.332704 0.068660 -0.294060 0.031179 0.019110 0.141537 -0.081565 0.140527 
transform -0.410436 0.653186 -0.565334 -0.311797 0.596749 -0.060200 0.614964 0.025681 0.222886 0.050839 
argument 0.008407 0.337969 -0.201365 -0.047792 -0.340808 0.238566 0.004870 -0.697862 -0.046513 0.403858 
computes -0.510435 0.779590 -1.173184 -0.356564 0.807386 -0.201136 0.065251 0.268196 -0.228079 -0.065332 
__ 0.304518 0.160264 -0.642213 0.563490 0.733398 0.435141 0.006189 -1.037046 0.137605 0.596261 
non 0.085552 0.482963 -0.560048 -0.079697 -0.296709 0.228128 -0.021474 -0.111875 0.119315 0.537765 
directory 0.313804 0.149004 0.086772 0.276571 -0.842787 -0.116134 0.616622 -0.008979 0.120413 -0.001771 
nodes -0.122886 0.389400 -0.566886 0.240685 -0.197005 -0.020984 -0.334429 0.044013 -0.181338 0.622108 
initialize -0.141368 0.602837 0.280051 0.276436 -0.067682 -0.219817 0.161958 -0.071715 0.288856 0.102397 
position 0.466182 0.570708 -0.391286 0.742265 -0.321029 0.136518 0.159860 0.415287 0.407052 0.088900 
start 0.427299 0.325782 -0.282840 0.605394 -0.016528 0.213660 0.040911 -0.284379 0.009721 0.081762 
b 0.370181 0.272321 -0.742482 -0.188886 0.565031 0.132502 0.057732 -0.649627 0.369746 -0.025463 
response 0.156785 0.466083 0.513199 0.227060 -0.355270 0.074152 0.802650 0.059063 -0.005557 -0.180169 
order 0.121814 0.411228 -0.592546 0.028514 0.095032 0.083023 -0.356526 -0.090168 0.078967 0.505312 
information 0.084743 0.547552 0.025060 0.189642 -0.478111 -0.271222 0.053315 0.370239 0.238607 0.091473 
attributes -0.703012 0.921025 -0.504452 0.205915 0.271609 -0.069202 -0.165515 -0.803933 0.540108 0.547680 
random -0.143099 1.106312 -0.469964 -0.000211 0.294158 -0.292060 0.445745 0.510043 0.031185 -0.889672 
source 0.189311 0.636682 0.010117 0.185860 -0.812586 -0.052677 0.379104 -0.107892 0.231774 -0.263123 
up 0.325387 0.177784 -0.049479 0.228502 -0.228459 0.089038 0.288874 0.130811 -0.123895 0.364550 
construct -0.658608 0.686458 0.015360 -0.073554 -0.086006 -0.381552 0.140778 -0.461668 0.302680 0.236601 
operator -1.107304 1.131035 -0.802238 -0.246365 1.098654 -0.027972 0.114419 -0.735717 0.430818 0.440841 
parameter -0.063398 0.276797 -0.131918 0.325032 -0.387700 0.103617 0.130352 -0.609410 0.060163 0.540471 
log 0.018078 0.455435 -0.452413 0.432197 0.636149 0.160125 0.479469 0.113824 -0.251245 -0.238472 
id -0.019174 0.659300 0.151443 0.361062 -0.421548 0.072872 0.033728 -0.100150 0.536820 0.409683 
internal -0.083453 0.323618 -0.072995 -0.051476 -0.101566 0.077960 0.411945 0.162795 -0.350672 0.130904 
decorator -0.187561 0.200546 0.345939 0.180658 0.190381 0.245171 -0.017663 -0.493043 -1.101790 0.329022 
exception 0.463230 -0.380349 0.523244 -0.228173 -0.383801 0.135946 1.044058 -0.363910 0.099892 0.637403 
** 0.276728 0.351319 -0.719721 0.450413 0.705057 0.196313 0.051871 -0.717746 0.519948 0.378401 
iterator -0.184618 0.702345 -0.247786 0.236629 -0.513766 0.003253 -0.545539 -0.104733 0.102626 0.544951 
calculate -0.064233 0.637316 -0.896564 0.135043 0.549120 -0.155723 0.061952 0.528135 -0.366448 -0.349680 
see -0.046532 0.213743 0.227657 0.063655 0.395087 0.049287 0.360657 -0.530557 -0.137996 0.187240 
row 0.045525 0.845371 -0.494259 0.212346 -0.116363 -0.243911 -0.705887 0.113151 0.459424 0.288402 
checks 0.201906 0.119749 0.082306 -0.274693 -0.389594 0.199752 0.471348 -0.013274 -0.070839 0.632314 
variables -0.154171 0.475024 -0.445746 -0.038019 -0.202450 -0.038699 -0.047691 -0.236416 -0.180769 0.367464 
no 0.316976 -0.028439 -0.073665 -0.114903 -0.359420 0.264694 0.559429 -0.345721 0.094410 0.863231 
p 0.042463 0.266162 -0.833511 -0.035635 0.697278 -0.116001 -0.002118 -0.249759 0.312380 0.317885 
form 0.198032 0.524646 -0.111853 -0.012359 -0.193102 0.089964 0.180516 -0.413902 0.270622 -0.177901 
int 0.800423 0.530336 -0.009518 -0.261572 -0.251056 0.352262 0.110157 -1.166260 0.433584 -0.543110 
collection -0.409068 1.030150 0.462368 1.183041 -0.044804 0.545458 0.104264 -0.158641 -0.352423 0.404541 
X -0.149304 0.052802 -1.416684 0.041753 0.690324 -0.499775 0.739956 -0.280282 0.013873 -0.155641 
configuration -0.043452 0.559537 0.538055 0.350537 -0.590198 -0.032500 0.652611 -0.090517 0.063279 -0.045241 
converts -0.006360 0.861687 -0.073350 -0.636274 -0.280017 0.227428 0.044996 -0.255526 -0.038620 -0.533057 
v 0.721828 0.764377 -0.256210 -0.881606 1.671831 0.924500 0.247967 0.056793 0.957007 0.243129 
corresponding -0.117935 1.026858 -0.291295 0.180273 -0.396942 0.157449 0.227679 -0.242517 0.487021 -0.033125 
config -0.017330 0.634630 0.528084 0.519762 -0.429556 0.242240 0.584802 -0.302147 0.299174 -0.011379 
apply -0.228906 0.436010 -0.192314 0.144966 0.024131 -0.097531 -0.050590 -0.180144 -0.174551 0.229649 
items -0.079947 0.699677 -0.500761 0.311678 -0.514972 0.104877 -0.590174 -0.119269 0.168988 0.649846 
axes -0.494324 0.942971 -0.508816 0.252693 0.395038 -0.169846 -0.131157 0.363541 0.264860 0.406939 
e 0.556934 0.328902 -0.478032 0.071765 0.306696 0.193196 0.166072 -0.564250 0.296517 -0.113699 
delete -0.414365 0.931095 0.740966 1.202011 0.192920 0.582758 0.479484 -0.168948 -0.364717 0.312669 
series -0.251023 0.752010 -0.844511 -0.170705 0.451540 -0.025140 -0.099153 0.076151 0.036235 -0.142485 
block 0.030902 0.381748 -0.211603 0.171515 -0.231611 -0.092026 0.147714 0.109690 -0.189434 0.118744 
along -0.690165 1.255943 -0.994850 -0.449245 0.106223 0.063407 -0.272172 0.317561 0.244298 0.310588 
options 0.109049 0.457870 0.374615 0.803453 -0.433874 0.209487 0.376857 -0.247460 -0.277573 0.127548 
mode 0.324752 0.296759 0.089497 0.276972 -0.102697 0.209663 0.710814 0.013662 0.129161 -0.029060 
dataset -0.644539 1.125396 -0.102413 -0.355028 -0.378390 -0.132548 0.122590 0.188005 0.298904 0.058191 
do 0.173511 -0.297777 -0.126802 -0.358728 -0.042574 0.276813 0.659747 -0.355718 -0.574541 0.906072 
c 0.283567 0.165880 -0.294796 0.072598 0.364029 -0.168261 0.347229 -0.576293 0.518379 0.081202 
system 0.006274 0.605803 -0.337487 -0.018172 -0.034760 -0.007866 0.680286 0.408930 -0.075016 -0.052663 
unicode 0.734380 0.555360 0.265231 -0.399064 -0.821655 0.289554 0.130460 -0.586645 0.227665 -0.550403 
strings 0.579888 0.517795 -0.162384 -0.061402 -0.701619 0.182024 -0.431605 -0.220778 0.184509 -0.110310 
files 0.470303 0.392349 -0.117354 0.251188 -0.675059 -0.020150 0.232813 0.103274 -0.045210 -0.179607 
range 0.068950 0.807238 -0.358760 0.473303 -0.001141 0.606546 0.025995 -0.132454 0.175776 0.311385 
group 0.027392 0.635756 -0.376532 0.521046 -0.264838 0.010666 -0.164197 0.113071 0.367495 0.435343 
some 0.131249 0.239457 -0.253275 -0.138769 -0.060569 0.245663 0.272486 -0.024294 -0.278990 0.477189 
been 0.332508 -0.257161 0.217520 -0.112499 -0.381690 0.404373 0.573854 -0.064833 -0.245821 1.223569 
keys 0.199354 0.511221 -0.280885 0.281931 -0.805493 0.059401 -0.471461 -0.205961 0.227543 0.482995 
match 0.238233 0.186852 -0.126068 -0.107978 -0.525886 -0.012824 -0.080463 -0.140126 0.219093 0.644324 
query 0.121112 0.428557 0.169928 0.223319 -0.349159 -0.202288 -0.190644 -0.136778 0.168463 0.308311 
callback 0.040247 0.176934 0.083273 0.533459 0.219017 0.016897 0.418978 -0.355128 -0.445518 0.415389 
passed 0.186666 0.295878 0.082006 0.232618 -0.440248 0.214757 0.122220 -0.486028 -0.162824 0.378142 
map -0.529005 1.064919 -0.467945 0.361227 0.318330 0.372675 0.127658 -0.814298 0.291988 0.291511 
widget -0.065267 0.467858 -0.036958 1.230407 0.190128 -0.093679 -0.055968 -0.369306 0.308109 0.656848 
base 0.277229 0.587998 0.168941 -0.062144 -0.051494 -0.000376 0.239585 -0.262904 0.391110 -0.159592 
polynomial -0.326901 0.093378 -1.312996 -0.330155 0.855477 -0.434708 0.644675 -0.216921 0.115821 -0.035164 
generator 0.046495 0.382568 -0.172996 0.237060 -0.340422 -0.004334 0.184573 -0.003067 -0.369562 -0.091649 
view -0.384354 0.719960 -0.254745 0.419901 -0.086393 0.105209 0.459435 -0.192077 0.352593 0.650144 
so 0.357295 -0.041873 -0.085100 -0.276236 -0.249971 0.382110 0.346582 -0.200365 -0.523505 0.661815 
server 0.507889 0.047152 0.514655 0.302926 -0.195571 0.065135 0.808225 0.332962 -0.020108 0.065575 
child 0.141163 0.121516 0.068240 0.741490 -0.360743 -0.218208 -0.137272 0.010480 0.144558 0.795348 
4 1.218130 0.647541 0.596406 -0.914489 1.166651 0.794872 -0.312485 0.015991 0.624975 -0.156257 
L 0.587625 -0.159951 0.405929 0.901386 0.619128 -0.856276 1.151019 0.126165 0.817521 -0.386949 
next 0.467621 0.400038 -0.158413 0.361427 -0.452454 0.210353 0.219689 0.330969 0.147098 0.199686 
print 0.236297 0.243478 -0.067478 0.172618 -0.187533 0.060466 0.022255 -0.083305 -0.339334 -0.083050 
length 0.320726 0.511045 -0.625106 -0.217523 -0.109016 0.160536 0.053598 0.064856 0.295692 0.021489 
plot -0.209511 0.782374 -0.471883 0.544433 0.308396 0.075027 0.042810 0.288544 0.108488 0.172907 
sparse -0.675380 0.986311 -0.453817 -0.991268 0.205225 -0.333807 0.108932 -0.117960 -0.166386 -0.238560 
otherwise 0.504829 -0.179594 -0.287163 -0.268921 -0.300330 0.481926 0.880891 -0.559830 0.704252 0.955215 
C 0.676296 -0.227249 0.086225 0.436335 0.308077 -0.493422 0.663098 -0.106624 0.232060 -0.281664 
open 0.296248 -0.003317 0.453776 -0.204397 -0.018991 -0.252369 1.208877 -0.058161 0.338751 -0.185949 
false 0.462472 -0.347315 -0.429471 -0.349942 -0.183201 0.405198 0.833165 -0.452887 0.639773 1.022905 
does 0.211381 -0.347189 -0.029681 -0.430792 -0.193120 0.316779 1.014549 -0.492711 0.003537 1.033240 
before 0.098572 0.137042 -0.055599 0.187675 -0.194460 0.449799 0.428410 -0.188200 -0.515372 0.700142 
arrays -0.178446 0.861522 -0.687508 -0.829686 -0.047676 0.283756 -0.155659 0.202800 -0.053944 0.110178 
date 0.912725 0.987621 0.152075 0.114215 -0.771629 0.660207 -0.503683 -0.107015 0.168079 -0.945641 
content 0.475309 0.427265 0.357587 0.392421 -0.435929 -0.176002 0.253238 -0.000237 0.405494 -0.201714 
available 0.346205 0.304070 -0.080376 0.227214 -0.368574 0.168848 0.228581 0.166468 0.238777 0.434310 
replace -0.277107 1.045230 0.483965 1.202538 0.024828 1.062326 0.529719 0.089182 -0.483411 0.662072 
-- 0.735661 0.339775 -0.281855 0.427013 0.096934 0.451979 -0.078256 -0.758019 -0.103375 0.054975 
handle 0.082614 0.332745 0.194647 0.199868 -0.090450 0.201853 0.447290 -0.130272 -0.306055 0.091689 
another -0.368175 0.576882 -0.407524 -0.281872 -0.282560 0.072191 0.253739 -0.178199 0.224050 0.503682 
more 0.147123 0.470895 -0.518520 -0.369560 -0.228297 0.201740 0.169777 0.098955 0.058775 0.771453 
end 0.503076 0.234247 -0.461107 0.583989 -0.305816 -0.030785 -0.026268 0.067063 0.121192 0.290178 
dtype 0.242753 0.368354 0.046830 -0.926337 -0.249897 0.102303 0.284454 -0.980401 0.341110 -0.077354 
filename 0.342218 0.089721 0.475590 0.007493 -0.698619 -0.262506 1.088415 -0.295185 0.240827 -0.310487 
distribution -0.500116 0.860965 -1.322248 0.026479 0.637183 -0.493224 0.280477 0.880720 -0.564038 -0.754995 
part 0.325594 0.436350 -0.260023 -0.139778 -0.333093 0.103733 0.321899 -0.136857 0.288001 0.312201 
d 0.702375 0.555596 -0.313485 0.004310 0.359895 0.050818 -0.016057 -0.571058 0.513247 -0.326576 
points -0.035780 0.683174 -1.191285 0.127253 0.648395 0.020718 -0.014338 0.419484 0.061564 0.093548 
them 0.360761 0.463404 -0.244351 0.090576 -0.461876 -0.005737 -0.041662 0.134441 -0.070050 0.091896 
raise 0.399846 -0.327512 0.200639 -0.464480 -0.209348 0.144958 1.079147 -0.503328 0.411143 0.883608 
tag 0.305559 0.462313 -0.040565 0.506168 -0.665290 -0.134541 -0.252032 -0.280089 0.484158 0.119443 
rows -0.071281 0.636961 -0.485552 0.047389 -0.148538 -0.090934 -0.534065 0.327079 0.439680 0.682704 
determine 0.191416 0.067743 -0.251093 -0.309732 -0.316351 0.110236 0.513639 0.091623 -0.006645 0.598544 
types 0.059179 0.443178 -0.178211 -0.314093 -0.363990 0.150258 -0.098118 -0.466127 -0.061752 0.286853 
lines 0.500482 0.558300 -0.387440 0.503115 -0.494520 -0.037705 -0.357405 0.405130 -0.062528 -0.135818 
provided -0.005688 0.387595 0.005523 -0.055531 -0.263479 -0.025089 0.372262 0.026036 0.206048 0.252799 
json 0.245415 0.663078 0.309463 -0.103073 -0.781284 0.015518 0.469070 -0.048734 0.348803 -0.422683 
within -0.040111 0.535846 -0.592589 0.088514 -0.165072 0.029690 0.014803 0.118722 0.194949 0.595427 
valid 0.329528 0.210035 0.131654 -0.408949 -0.489784 0.288397 0.524968 -0.361460 0.442259 0.540137 
cache 0.164932 0.450897 -0.042201 0.384405 -0.583404 0.044138 0.171380 0.106591 0.148192 0.352827 
level 0.301195 0.366728 -0.309426 0.440469 -0.216428 -0.035614 0.061500 0.049681 0.069370 0.319936 
session -0.055859 0.264250 0.510027 0.270693 0.072677 0.010428 0.595812 -0.135475 -0.063062 0.273934 
functions 0.011527 0.305628 -0.031650 0.152848 -0.032958 0.130751 0.132542 -0.236133 -0.507948 0.146564 
out 0.204650 0.272594 -0.140998 -0.021501 -0.199762 -0.012973 0.262722 0.030711 -0.135289 0.169625 
color 0.100049 0.736936 -0.315185 -0.226464 -0.013992 0.026191 0.129058 -0.270132 0.232419 -0.309991 
numpy -0.103094 0.891444 0.113473 -0.832648 0.020732 0.145262 0.297675 -0.153317 0.372885 -0.242694 
register -0.209830 0.273343 0.228247 0.434548 -0.075449 0.080559 0.430441 -0.419945 -0.534742 0.292643 
? 0.280102 -0.142269 -0.473194 -0.029307 -0.067525 0.107415 0.360200 -0.737739 0.257949 0.815606 
record 0.331703 0.361428 -0.013835 0.313326 -0.512146 -0.035320 0.046340 -0.159097 0.315862 0.033216 
coordinates -0.284401 0.987810 -0.951024 0.138885 0.174160 0.080302 0.308550 0.469494 0.497710 0.039772 
args 0.328213 0.090493 0.023365 0.510990 -0.115751 -0.048955 -0.138588 -0.883594 -0.112106 0.145619 
datetime 0.375633 0.966079 0.413347 -0.564965 -0.736391 0.315845 -0.116753 -0.459500 0.284709 -0.756843 
draw -0.285737 0.934922 -0.705540 0.531557 0.536544 -0.206779 0.271037 0.628258 -0.304051 -0.403711 
handler 0.442956 -0.093640 0.459097 0.590806 -0.053004 0.090928 0.665350 -0.126353 -0.266134 0.358632 
without 0.161486 0.385548 -0.062053 -0.058156 -0.332503 -0.045236 0.379557 -0.068011 -0.140204 0.068267 
last 0.297167 0.622452 -0.441011 0.169215 -0.344787 0.392099 -0.087494 0.052823 0.116240 0.165884 
iterable 0.006360 0.523061 -0.446611 -0.078141 -0.545895 0.064174 -0.337728 -0.360524 0.514921 0.594876 
then 0.346697 0.079580 -0.300088 0.164074 -0.399574 0.107294 0.643650 -0.270821 0.241283 0.619793 
close 0.518958 -0.181466 0.154543 0.135073 -0.163589 -0.079192 0.807263 0.447643 -0.168888 0.266480 
possible 0.264514 0.294897 -0.202700 -0.242639 -0.544176 0.184719 0.431003 -0.167433 0.141348 0.286574 
document 0.350112 0.337961 0.337354 0.282425 -0.682452 -0.240420 -0.115969 -0.093974 0.531116 0.206690 
returning -0.098745 0.471361 -0.146640 0.049352 -0.629052 0.176825 0.317112 -0.552126 0.332807 0.230695 
token 0.416690 0.298268 -0.005844 0.337862 -0.370769 0.012545 0.142624 -0.244899 0.285652 -0.134200 
structure 0.041980 0.766514 0.147196 -0.124449 -0.545689 -0.102164 0.049637 -0.206543 0.386593 -0.163483 
columns -0.169608 0.701632 -0.364961 -0.138446 -0.182017 -0.209391 -0.477675 0.171878 0.309291 0.627589 
label 0.148915 0.680330 -0.315316 0.894183 -0.123955 -0.179511 -0.082992 -0.056454 0.525824 0.058176 
task 0.402742 -0.255776 0.293111 0.798173 -0.174223 -0.220772 0.451148 -0.326289 -0.064746 0.208768 
was 0.403366 0.035854 0.218397 -0.206081 -0.370551 0.296050 0.621282 -0.125734 -0.086037 0.610747 
adds -0.124300 0.406435 0.121037 0.308936 -0.189788 -0.105279 0.176792 0.013128 -0.044085 0.153260 
dimension -0.320224 1.082047 -0.804792 -0.175453 -0.161311 0.129370 -0.247938 0.100218 0.182808 0.199696 
than 0.414098 0.088470 -0.312731 -0.463373 0.059506 0.380893 0.166481 -0.203435 0.258025 1.025579 
% 1.251834 -0.334213 -0.351865 1.090908 0.615422 -0.520414 -0.344252 -0.722681 0.811680 0.233385 
indices -0.199717 0.817043 -0.666684 -0.272192 -0.160775 -0.015084 -0.257077 0.220137 0.267878 0.277913 
perform -0.104166 0.291068 -0.142245 0.026256 0.015344 -0.025657 0.422588 0.073972 -0.423332 0.077070 
cell 0.004363 0.723837 -0.144147 0.265787 -0.305442 -0.218891 -0.429327 0.130667 0.199694 0.246345 
filter -0.038087 0.469519 -0.181550 -0.009862 -0.052335 -0.011200 0.113210 0.005935 -0.257918 0.083115 
local 0.013684 0.520159 -0.231629 -0.026502 -0.277293 0.027649 0.555234 0.237541 0.168267 -0.051477 
according 0.099045 0.715420 -0.091593 -0.134883 -0.242152 0.078849 0.131091 -0.016136 0.240613 -0.155722 
matches 0.041634 0.366812 -0.006878 0.001565 -0.852957 0.141653 0.042022 -0.422012 0.439256 0.823296 
status -0.151091 1.162971 0.397840 1.392627 -0.146066 1.117373 0.877161 0.272654 -0.491458 0.283047 
vector -0.303656 0.840464 -0.957917 -0.510513 0.472328 -0.069981 0.171642 0.194612 0.111387 -0.103679 
calls 0.041302 0.298948 0.140030 0.325708 0.314800 -0.064292 0.156221 -0.226480 -0.363437 0.277456 
socket 0.463107 -0.234762 0.603608 -0.003690 -0.223774 0.025934 1.035549 0.197954 -0.131921 0.280709 
6 1.543913 0.788936 0.932380 -0.961730 1.159487 0.836632 -0.426747 0.087880 0.649276 -0.450057 
style 0.487534 0.364448 0.366224 0.446529 -0.029578 -0.313670 -0.515424 -0.492033 0.631411 0.185928 
extract 0.094869 0.608826 -0.175036 0.060687 -0.571389 -0.151160 0.040678 0.054745 -0.028366 -0.181197 
mapping -0.061353 0.695356 -0.145785 0.437981 -0.347986 -0.102393 -0.181499 -0.300380 0.360711 0.123994 
target -0.204992 0.627350 -0.021640 0.186522 -0.195279 -0.086348 0.306146 -0.070252 0.296141 0.181757 
offset 0.577115 0.575369 -0.244214 0.190904 -0.734191 -0.002926 0.162647 0.360125 0.178146 -0.191455 
associated -0.192912 0.533766 0.366191 0.201456 -0.572652 -0.285859 0.200379 -0.172773 0.448505 0.567199 
binary -0.010855 0.254828 0.179760 -0.453654 -0.108954 -0.234910 0.322393 -0.394276 -0.319492 -0.424239 
reference -0.297548 1.293756 0.750411 0.370381 1.544171 0.189538 -0.241074 -0.692629 -0.002672 -0.272109 
meth -0.547392 0.466785 1.005887 0.298206 0.361646 -0.256171 0.436102 -0.670008 -0.022596 0.465068 
loop 0.266189 0.055221 -0.081803 0.755415 0.377291 0.010339 0.287290 -0.118494 -0.572572 0.481752 
template -0.177585 0.813714 0.638412 0.786584 -0.412436 0.217119 0.396403 -0.487629 -0.225422 0.057325 
g 0.191018 0.005372 -0.935525 0.231865 0.724748 -0.213163 0.611435 -0.566506 0.271141 0.303890 
send 0.503531 -0.073873 0.500069 0.315580 -0.203118 0.159884 0.604580 0.145939 -0.391701 -0.040728 
characters 0.710098 0.330502 -0.431394 -0.012593 -0.696793 0.392157 -0.458964 -0.132293 0.246471 0.540389 
retrieve 0.325402 0.376599 -0.015004 0.368533 -0.574807 -0.090484 0.216435 0.263233 0.318818 0.183158 
obj 0.520933 0.274790 0.284410 0.102678 -0.363773 0.031088 0.273405 -0.735135 0.802367 0.222229 
str 0.612424 0.354939 0.408318 0.077685 -0.366069 0.187365 -0.019124 -1.113181 0.334378 -0.323986 
found 0.474596 -0.049038 -0.086526 -0.134921 -0.781715 0.199544 0.333084 -0.324597 0.447654 1.050987 
about 0.174556 0.284145 -0.088264 0.220220 -0.247236 -0.051949 0.252596 0.424976 -0.129131 0.107735 
r 0.085597 0.332010 -0.730346 0.032996 0.688184 -0.583277 -0.353440 -0.352065 0.627721 0.319860 
results 0.016067 0.394079 -0.079195 0.281721 -0.166837 -0.147114 -0.048031 -0.173932 0.022693 0.274582 
either 0.203076 0.303988 -0.125253 -0.307973 -0.386753 0.116406 0.368251 -0.289348 0.368164 0.395286 
k 0.170824 0.035754 -0.947353 -0.106447 0.691058 -0.432386 0.308695 -0.160552 0.324691 0.145669 
equal 0.290693 0.248205 -0.523372 -0.629201 0.313995 0.325604 0.194199 0.162222 0.616498 1.085709 
info 0.252914 0.452835 0.266556 0.123869 -0.253180 -0.049467 0.289322 -0.094269 0.029854 -0.194190 
property -0.050891 0.453438 0.406108 0.362976 -0.391378 -0.231077 0.182800 -0.241248 0.407954 0.300969 
interval -0.047429 0.539091 -0.629783 -0.362704 -0.124936 0.103192 0.262723 0.005172 0.147421 0.032235 
build 0.137402 0.469427 0.108874 0.159992 -0.315367 -0.085773 0.106461 0.065805 -0.116341 -0.072907 
fields 0.218909 0.513122 0.102723 0.151907 -0.588842 -0.057615 -0.387105 0.040009 0.201684 0.528272 
operation -0.117805 0.375214 -0.091341 0.095537 0.140270 -0.025197 0.145111 -0.232384 -0.067291 0.337088 
representing -0.283821 1.081299 -0.133217 -0.029204 -0.651830 0.127627 0.336945 -0.495517 0.443165 -0.273143 
| 0.446243 0.011246 -0.141760 0.078523 0.146401 0.107219 -0.434052 -2.378129 -0.398912 -0.191831 
requests -0.289882 0.531736 1.439264 1.572642 0.410082 0.531632 0.968043 0.148099 -1.037968 0.607674 
stop 0.572634 0.187571 -0.341588 0.847222 0.178848 0.415105 0.311176 -0.081649 -0.230219 0.081091 
proxy -0.449750 0.833280 1.558287 1.608422 0.003269 0.440214 1.009672 0.201143 -0.598077 0.528167 
root -0.225247 0.414233 -0.998088 0.038760 -0.237647 -0.393651 0.246149 -0.170033 0.281250 0.132706 
matching 0.164523 0.472227 -0.058104 0.054425 -0.529474 -0.024206 -0.259117 -0.003237 0.374144 0.485710 
display 0.184053 0.583792 -0.125311 0.627938 -0.166624 -0.033455 -0.009615 0.249939 0.163868 -0.033324 
manager -0.229951 0.391751 0.297446 0.608008 -0.173100 -0.093470 0.246141 0.043055 -0.514265 0.484824 
eturn 0.038164 0.533392 0.100546 0.133863 -0.861936 -0.180689 -0.068016 -0.705989 0.456447 0.787028 
convenience -0.834868 0.903535 0.618023 0.071501 0.340117 0.304745 0.227702 -1.123721 -0.965001 0.069020 
window -0.288898 0.583713 -0.111847 0.552473 0.180812 -0.332043 0.445980 0.364518 0.400237 0.319357 
address 0.702737 0.210433 0.558702 0.003926 -0.261056 -0.010144 0.268555 0.005314 0.560368 -0.134063 
empty 0.583274 0.339825 -0.212433 -0.030832 -0.477584 0.354188 0.125892 -0.366212 0.490365 0.612962 
stack 0.046162 0.185906 -0.222189 0.145474 -0.327077 -0.050379 0.300526 0.315702 -0.268353 0.270592 
contents 0.131368 0.568091 0.295822 -0.043426 -0.726144 -0.207274 0.365147 0.044560 0.490892 -0.197535 
linear -0.439551 0.532975 -0.752226 -0.355018 0.939479 -0.187326 0.373147 0.155840 -0.207244 0.056628 
named 0.201705 0.340686 0.176149 0.256919 -0.558660 -0.072195 0.349485 -0.462284 0.393293 0.270766 
labels -0.035212 0.812309 -0.724094 0.398920 0.086914 -0.122835 -0.228307 0.477490 0.250669 0.135362 
resource -0.481294 0.936617 0.918869 1.144758 -0.430763 0.407820 0.953776 -0.460477 -0.168626 0.328511 
multiple 0.078090 0.607879 -0.370666 0.023796 0.007022 0.025661 -0.199455 0.155536 -0.167738 0.188161 
gets 0.091514 0.183861 -0.175863 0.136385 -0.204754 -0.041486 0.156723 0.076769 -0.171772 0.199971 
such 0.252336 0.256219 -0.247071 -0.148865 -0.006120 0.063103 0.016346 -0.518387 0.024401 0.329011 
their 0.084811 0.596059 -0.324029 0.150133 -0.311316 -0.122456 -0.523349 -0.030437 -0.207375 0.476256 
through 0.128330 0.427490 -0.064982 0.254409 -0.333543 -0.035887 0.071253 0.081559 -0.086647 0.484062 
created -0.657718 0.683508 -0.117231 0.063242 0.465742 -0.064720 0.151097 -0.770680 0.469184 0.973098 
appropriate 0.027804 0.493660 0.500650 0.033858 -0.283394 -0.224068 0.310212 0.033539 0.305752 0.105685 
html 0.561381 0.446034 0.422262 0.047029 -0.329680 0.023244 -0.030944 -0.349450 0.224790 -0.384866 
space -0.035096 0.859710 -0.802848 0.020192 -0.039895 -0.181279 0.218898 0.104914 0.082615 -0.266561 
distance -0.025263 0.601079 -1.040099 -0.201033 0.634424 -0.169257 -0.113973 0.706742 -0.180686 -0.028211 
byte 0.861768 0.476095 0.053841 -0.448501 -0.648962 0.123996 0.132485 -0.139624 0.190969 -0.710686 
there 0.540891 -0.323765 -0.467252 -0.139728 -0.669994 0.238968 0.606079 0.035222 0.168309 1.357452 
exists 0.257109 -0.234894 -0.082924 -0.015647 -0.738203 0.050884 1.146290 -0.292672 0.382776 0.747768 
api -0.048419 1.012484 1.039756 0.451629 1.219690 0.150160 0.199141 -0.542413 -0.031780 -0.111360 
wrapper -0.124917 0.373143 0.376870 0.001670 0.222210 -0.095539 0.332014 -0.173038 -0.392387 0.060326 
... 0.759740 0.286732 -0.684312 0.567668 0.410006 0.420297 0.063267 -1.068852 0.360079 -0.146951 
save 0.063652 0.385967 0.202033 -0.101953 -0.293629 -0.143099 0.637551 0.108536 0.159705 -0.253505 
width 0.252128 0.758049 -0.754401 0.554836 0.245291 -0.078543 -0.170686 0.494699 0.663226 0.115935 
sorted -0.009049 0.777396 -0.657350 0.133993 -0.833884 -0.015268 -0.764155 -0.163893 0.434627 0.701402 
location 0.281883 0.699431 -0.021306 0.355291 -0.236061 -0.195232 0.137933 0.304448 0.676515 -0.115062 
* 0.662670 0.235283 -0.682133 0.330908 0.460021 0.157101 -0.030151 -0.814161 0.214513 0.074920 
right 0.189627 0.263116 -0.463193 0.048642 0.303487 -0.176263 -0.007966 0.512785 0.340099 0.679278 
metadata 0.024463 0.506256 0.012340 0.077373 -0.674449 -0.225588 0.240445 0.209471 0.056585 0.014072 
validate 0.133118 0.362997 0.253571 -0.124296 -0.238379 0.235018 0.222257 -0.150130 0.178228 0.413527 
parser -0.084083 0.418642 0.336607 0.340450 -0.141523 -0.029648 0.352667 -0.217898 -0.203952 0.207746 
word 0.344574 0.782371 -0.350054 0.067009 -0.281291 -0.069057 -0.514323 -0.079281 0.010918 -0.434836 
body 0.412042 0.266543 0.438116 0.491298 -0.393580 -0.266927 0.416517 0.224218 0.112352 -0.184485 
box -0.119761 0.796443 -0.689911 0.624401 0.171089 -0.099897 0.330342 0.228413 0.591569 0.674946 
execute 0.047086 0.113138 0.360019 0.510770 -0.014142 0.026476 0.229154 -0.173292 -0.813801 0.386303 
float 0.585251 0.438260 0.083313 -0.595411 -0.245881 0.369540 0.047494 -0.867891 0.374757 -0.184052 
specific 0.026683 0.543932 -0.025185 0.059488 -0.441515 0.038708 0.152019 0.030765 -0.068441 0.125169 
_ 0.508419 0.968203 0.761439 0.052285 1.975448 0.729895 -0.516059 -0.416803 0.162899 -0.174827 
change 0.172860 0.359788 -0.061529 0.346021 -0.193630 -0.063214 0.105440 0.268125 -0.133289 0.272687 
count 0.203584 0.428326 -0.358375 -0.179704 -0.115306 0.049061 -0.377713 0.129121 0.062679 0.305081 
generates -0.031161 0.575029 -0.094968 0.085295 -0.255411 -0.077273 0.223410 -0.013114 -0.030465 -0.173239 
search 0.250493 0.290647 0.190136 0.458808 -0.456927 -0.222738 -0.005105 -0.124700 0.039952 0.189265 
application 0.038127 0.331673 0.505621 0.378032 -0.461229 -0.021364 0.727647 -0.165895 -0.173468 0.193011 
client 0.324861 0.019433 0.768604 0.320865 0.088031 -0.093982 0.670010 0.003898 -0.111478 0.191101 
cursor 0.152969 0.422803 0.098000 0.909283 -0.160891 -0.181314 -0.037300 0.365564 -0.024542 0.325629 
until 0.428481 -0.149120 -0.226926 0.419935 -0.380005 0.115463 0.502642 0.282161 -0.449743 0.594786 
contains 0.245190 0.313934 -0.190509 -0.201702 -0.406732 0.163732 0.120748 -0.252133 0.497943 0.690147 
inverse -0.310439 0.744594 -1.122198 -0.562937 0.987668 -0.150739 0.585187 0.388978 0.072443 -0.343833 
character 0.892197 0.096730 -0.257860 0.024078 -0.849377 0.065343 0.030706 0.026848 0.238872 0.383429 
t 0.665777 0.146756 -0.838180 0.219838 0.608535 -0.330090 0.000566 -0.398408 0.646373 -0.156499 
standard 0.143466 0.597867 -0.285463 -0.170912 -0.071599 -0.004909 0.263544 0.121900 -0.236216 -0.437147 
9 1.565426 0.860788 0.882629 -0.863739 1.674241 1.106236 -0.649518 0.176652 0.406974 -0.036172 
raw 0.288204 0.593080 -0.077204 -0.098061 -0.507583 -0.015611 0.400332 -0.103522 0.354944 -0.318383 
entry 0.127590 0.296713 -0.166297 0.372374 -0.419843 -0.155267 0.097266 0.146709 0.084966 0.135692 
left 0.256719 0.423203 -0.865768 0.225734 0.189437 -0.385618 -0.212606 0.360859 0.783277 0.543319 
parent -0.206819 0.198221 0.034349 0.700403 -0.375005 -0.326103 0.387702 -0.284612 0.341931 0.862413 
buffer 0.355251 0.407783 0.366810 -0.108106 -0.447198 -0.068334 0.338720 0.333340 -0.012747 -0.354165 
pairs 0.337250 0.426064 -0.438204 0.202670 -0.510791 -0.211822 -0.509127 -0.034689 0.373532 0.223007 
environment 0.170026 0.370426 0.319678 0.315872 -0.289152 -0.018436 0.325956 -0.276320 0.044433 0.237206 
algorithm -0.081545 0.536188 -0.443214 -0.145649 0.741507 0.140100 0.463649 0.014049 -0.271461 -0.039345 
encoding 0.666975 0.293165 0.267855 -0.589932 -0.429544 0.107385 0.413357 -0.293897 0.239236 -0.171110 
page 0.290312 0.677869 0.050385 0.423786 -0.507549 0.003650 0.090997 0.341801 0.296699 0.080706 
store 0.046371 0.430148 -0.024612 0.252167 -0.407465 -0.083468 0.334477 -0.052693 -0.045499 -0.067981 
unit -0.023578 0.574016 -0.371934 -0.301747 0.093474 0.057802 0.408809 -0.017364 -0.015366 -0.201722 
8 1.545653 0.908665 0.996316 -1.006389 1.034580 0.684876 -0.480038 0.027367 0.407672 -0.340058 
network -0.203725 0.703321 0.340149 0.325529 -0.168934 0.192045 0.199016 0.105922 -0.113844 -0.020433 
instances 0.037438 0.494783 0.050710 0.304080 -0.213664 -0.111329 -0.231983 0.052636 0.073869 0.414361 
constructor -0.108101 0.221963 0.361382 0.217737 -0.094451 -0.118832 0.207674 -0.387978 -0.047057 0.227575 
implementation 0.020458 0.298049 -0.027078 0.299502 0.088697 -0.033701 0.111680 -0.321607 -0.178088 0.354101 
deprecated 0.492204 0.026557 0.307847 0.361428 0.344623 0.181788 0.336928 -0.563135 -0.107955 0.117802 
h 0.677117 0.652288 0.110094 -0.466370 0.772549 0.245798 0.082196 0.418592 0.846556 0.118224 
+ 0.557523 0.221928 -0.787197 0.159846 1.106714 0.211526 -0.037929 -0.693220 0.336034 0.319267 
kind -0.809645 1.574400 0.291697 1.159566 -0.242151 1.393895 0.444281 -0.162471 -0.577814 0.620310 
schema 0.052739 0.583970 0.338951 0.507451 -0.135343 -0.521769 -0.351221 -0.156827 0.771512 0.200814 
override 0.051651 -0.046431 0.166695 0.221912 -0.077256 0.045384 0.392426 -0.161362 -0.419472 0.624415 
interface -0.261040 0.545292 0.290546 -0.118139 -0.175546 -0.118899 0.348652 -0.122907 0.018687 0.056736 
l 0.180428 0.327637 -0.119884 -0.410921 0.763183 -0.497252 0.761973 -0.126541 0.532138 -0.220908 
existing -0.064169 0.460038 0.146931 0.143066 -0.541976 -0.262228 0.216508 -0.152021 0.371191 0.401781 
option 0.282666 0.411359 0.131997 0.575945 -0.364880 -0.109747 -0.170933 -0.287517 0.243709 0.225467 
case 0.388998 0.211677 -0.327914 -0.100677 -0.249546 0.368715 0.265424 -0.204026 -0.303271 0.265968 
tuples 0.380492 0.531974 -0.552152 0.108687 -0.594314 -0.046590 -0.728582 -0.281536 0.264153 0.185386 
figure -0.224881 0.685402 -0.002589 0.498500 -0.088227 -0.026812 0.129489 0.371106 -0.071498 0.292056 
events 0.309135 0.266977 0.237516 0.981464 -0.179890 0.149679 0.138603 0.093535 -0.697888 0.457316 
slice -0.245917 0.788630 -0.241973 -0.240785 -0.281938 0.084578 -0.092934 -0.475367 0.526797 0.218022 
gradient -0.377186 0.272092 -0.377876 -0.453452 0.639703 -0.597224 0.108388 0.099670 -0.090809 0.191904 
methods 0.060919 0.268562 0.402275 0.188804 0.102805 0.157789 0.086957 -0.212299 -0.431437 0.386793 
database 0.110522 0.331339 0.063689 0.376102 -0.505624 -0.269554 0.237568 -0.091641 0.174009 0.173624 
underlying 0.215895 0.169943 0.551845 0.142532 -0.102728 -0.182375 0.917686 0.023388 0.187995 0.185569 
must 0.300408 0.130217 0.114024 0.059787 -0.267541 0.308083 0.069846 -0.690756 -0.196212 0.740384 
pattern 0.078972 0.391209 0.122726 -0.019281 -0.681383 -0.155482 -0.157695 -0.228326 0.239284 0.336735 
5 1.307200 0.665082 0.602425 -0.847716 1.487688 0.953142 -0.417518 0.161884 0.522084 0.050707 
boolean 0.097382 0.396748 0.124008 -0.565465 -0.285327 0.199224 0.111991 -0.393531 0.504738 0.699002 
link 0.070593 0.274451 -0.101632 0.255951 -0.074235 -0.364483 0.161348 -0.156412 0.288262 0.041892 
optional 0.399397 0.276457 0.094346 0.352453 -0.288891 0.005087 0.081388 -0.620528 0.126326 0.238169 
xml 0.144871 0.360717 0.427019 0.101389 -0.726677 -0.469095 -0.285570 -0.701696 0.330785 0.029431 
present 0.422561 0.109156 0.069146 0.018912 -0.663045 -0.016038 0.209537 -0.002254 0.701530 1.083476 
takes 0.200642 0.433397 -0.097214 -0.213143 -0.445246 0.135845 0.117747 -0.345233 -0.231061 0.035904 
ip 0.592484 0.206280 0.540432 -0.080023 -0.459888 0.056771 0.055114 -0.122556 0.314300 0.126490 
flag 0.268460 0.018432 0.474398 0.237408 -0.256013 -0.177571 0.443620 -0.011229 0.301046 0.461473 
maximum -0.087516 0.717472 -0.668241 -0.171041 0.045125 0.001955 -0.390012 0.344425 0.165438 0.279797 
hash 0.111832 0.354939 0.184622 -0.120072 -0.285372 0.020909 0.487861 -0.007653 0.147497 0.041915 
global -0.130067 0.604156 0.069140 0.165723 -0.227986 0.081769 0.234445 -0.313521 -0.112426 0.273955 
z 0.731268 0.257335 -1.131571 0.109024 1.137524 0.009308 0.029662 0.041464 0.363111 -0.149058 
real -0.030376 0.107981 -0.765683 -0.691451 0.332803 -0.013260 0.288026 -0.257550 -0.239048 0.216520 
lists 0.344156 0.486958 -0.434692 0.047193 -0.594228 0.000060 -0.660976 0.011175 0.049486 0.296797 
already 0.437562 -0.216774 0.127453 -0.229672 -0.460221 0.228942 0.700163 -0.198690 0.078347 0.885321 
batch -0.095302 0.624852 -0.280985 -0.139430 0.140655 -0.041905 0.111695 0.326853 -0.136715 0.051959 
evaluate 0.196790 0.218165 -0.616455 -0.093943 0.558529 -0.276108 0.273354 0.048660 0.286020 0.018764 
zero 0.234047 0.267961 -0.479784 -0.327771 0.102258 -0.051217 0.293840 -0.095918 0.311754 0.478589 
select 0.037259 0.432289 -0.319005 0.264176 -0.013195 -0.393119 -0.344659 -0.572150 0.567605 0.702065 
section 0.795725 0.305862 0.933871 -0.244369 0.067838 0.172064 0.039098 0.061947 0.291019 -0.412338 
original 0.308392 0.245163 0.028449 0.281192 -0.149942 -0.225932 0.089893 -0.037184 0.081354 0.224270 
full 0.316878 0.412983 -0.044773 -0.059889 -0.235572 0.079624 0.165691 -0.124067 0.239170 -0.063582 
scale -0.379593 0.952889 -0.237855 0.734205 0.462207 0.556603 0.553409 0.509644 -0.343169 0.099298 
connect 0.094249 0.204282 1.272477 1.317991 0.084039 0.339616 0.846971 0.039157 -0.699440 0.282522 
try 0.422402 0.055443 0.169808 -0.215166 -0.484325 0.097731 0.404637 -0.197609 -0.009144 0.302589 
returned 0.304896 0.314432 0.299553 0.011643 -0.268399 0.184052 0.426776 -0.155916 0.036083 0.358244 
performs -0.047839 0.386950 -0.248241 0.001608 0.280600 -0.144770 0.166970 0.179063 -0.445106 -0.058848 
constant 0.034260 0.285776 -0.285128 -0.338042 0.056049 -0.057336 0.418522 -0.465236 0.086879 0.345377 
every 0.180781 0.205384 -0.349815 0.306945 -0.061269 0.139713 0.123749 -0.142447 -0.203011 0.486952 
callable 0.039401 0.131965 0.325429 0.186659 -0.320419 0.129816 0.305899 -0.618445 -0.260031 0.736760 
may 0.479308 -0.096679 -0.075286 -0.233887 -0.174028 0.271710 0.121594 -0.204831 -0.119290 0.860293 
back 0.308032 0.321848 0.078892 -0.062842 -0.463611 0.062016 0.481361 0.084575 -0.121879 0.003950 
sum -0.162915 0.495191 -1.295956 -0.204566 0.838663 -0.020728 -0.188688 -0.034569 0.143346 0.231477 
dimensions -0.300895 0.743433 -0.621039 -0.381972 0.093649 0.000115 -0.010263 0.020807 0.133502 0.323168 
statement -0.027412 0.364843 0.234160 0.588391 -0.517606 0.153318 0.303244 -0.293713 -0.269482 0.643693 
product -0.397155 0.778105 -1.162679 -0.626900 0.570461 -0.121347 -0.220319 0.298283 -0.130331 -0.055081 
package 0.514713 0.145959 0.108048 0.062627 -0.763070 -0.145346 0.428065 -0.236743 0.332980 0.141340 
against -0.301535 0.663159 0.135298 0.169873 -0.256285 -0.137804 0.327132 -0.310134 0.258214 0.655193 
w 0.073271 0.175958 -0.250320 -0.570745 0.691438 -0.742973 -0.406983 -0.420404 0.914949 0.438731 
top 0.332209 0.457910 -0.367074 0.824360 0.196106 -0.222520 -0.094476 0.392751 0.720751 0.552478 
swagger 0.878720 1.001446 0.084865 -1.004065 1.494561 1.169367 -0.236357 0.218326 0.919715 0.355052 
reset 0.566654 0.504753 -0.103894 0.213719 -0.221238 0.606370 -0.073415 0.296956 -0.034817 0.230801 
equivalent 0.301843 0.188876 -0.243982 -0.279083 -0.221741 0.084743 -0.126209 -0.424724 0.252939 0.458928 
reads 0.353982 0.350394 0.245674 -0.440113 -0.471036 -0.343190 0.471571 0.308721 0.117133 -0.461437 
@ 0.606374 -0.036111 0.391604 1.010948 0.160839 -0.277712 0.206400 -0.846401 0.032510 -0.101423 
signature 0.180181 0.287833 0.139974 0.336286 -0.290248 0.259783 0.497848 -0.492516 -0.088269 0.144616 
calculates -0.165199 0.401220 -0.743836 -0.073313 0.499444 -0.327430 -0.043354 0.304992 -0.266263 0.020968 
split 0.236056 0.469516 -0.139506 -0.115510 -0.532410 -0.319661 0.121631 -0.019538 0.070766 -0.384924 
access 0.306962 0.344453 0.147979 0.351273 -0.265047 0.155173 0.332402 -0.158774 0.056606 0.102181 
fit -0.220806 0.397921 -0.235199 -0.177589 0.448313 -0.424341 0.405164 0.392208 -0.434242 -0.214693 
currently 0.283415 0.239913 0.107217 0.200957 -0.281780 0.095903 0.341979 0.112702 -0.042762 0.520046 
necessary 0.395682 0.244409 -0.178325 -0.044435 -0.364137 0.037755 0.519759 0.003349 0.005383 0.311869 
sub 0.214072 0.326366 -0.281339 -0.199760 0.024077 -0.174282 -0.391045 -0.219865 0.408410 0.671864 
being 0.324324 0.097912 0.211911 -0.042062 -0.250550 0.265056 0.340210 -0.098944 -0.069584 0.598016 
# 0.799802 0.618583 1.051944 0.033623 1.213619 0.383527 -0.072046 -0.153999 0.141422 -0.078746 
domain -0.199901 0.385587 -0.356947 -0.359352 -0.204715 -0.125150 0.196203 -0.051858 0.249623 0.406888 
max 0.127253 0.437368 -0.832362 0.191997 0.692667 -0.063481 0.002878 0.095702 0.164371 0.208232 
support 0.196101 0.037909 0.099304 -0.067894 0.232962 0.151772 0.317626 -0.215014 -0.405712 0.381194 
/ 0.206824 0.428443 -0.213743 0.216220 0.332423 -0.051180 0.085792 -0.136591 0.081108 0.173664 
applies -0.370664 0.734319 -0.296467 -0.253023 0.205812 -0.169891 -0.035408 0.534962 -0.152026 0.087630 
thread 0.266514 0.039684 0.291117 0.766663 -0.129348 -0.090003 0.274827 0.193392 -0.695603 0.290809 
headers 0.455940 0.435236 0.294346 0.148433 -0.401961 0.081077 0.067190 0.138843 0.072062 0.078748 
channel 0.244417 0.196623 0.183745 0.005713 -0.132328 -0.168137 0.594871 0.209243 -0.031354 0.013689 
pair 0.270641 0.444038 -0.618942 -0.122382 -0.414712 -0.105247 -0.234337 -0.140181 0.360238 0.138398 
properties -0.150521 0.421700 0.241919 0.329711 -0.494046 -0.232888 -0.334752 0.108070 0.074097 0.614586 
relative 0.155125 0.467693 -0.150171 0.241183 -0.644002 -0.243186 0.365064 -0.074185 0.298335 -0.136430 
via 0.016795 0.343590 0.156309 0.014595 -0.189645 -0.003170 0.399982 -0.234068 -0.168737 0.243433 
double 0.891806 -0.131105 -0.326020 -0.417860 0.256586 -0.361842 -0.212357 -1.287436 -0.449789 -1.058671 
K -0.276858 -0.235061 -1.772551 -0.162742 0.797678 -1.038778 0.053333 -0.695679 0.109205 0.003363 
m 0.417792 0.043756 -0.804608 -0.264851 0.929255 -0.571499 0.447496 -0.543035 0.600643 0.070342 
private 0.431529 0.317813 -0.176393 0.315552 0.124435 0.123677 0.706310 -0.081470 0.483170 -0.078020 
identifier 0.694162 0.469850 0.129032 0.103331 0.088461 0.268408 0.408377 -0.776900 0.702206 -0.109179 
attr -0.008661 0.387682 0.543798 0.536398 -0.197911 0.023845 0.351338 -1.208871 0.780576 0.520344 
iterate -0.041149 0.354741 -0.762987 0.310141 -0.639805 -0.259290 -0.820085 0.389898 -0.415571 0.723729 
needed 0.240178 0.105249 0.020672 -0.143338 -0.341015 0.042031 0.356719 0.028437 -0.289278 0.443623 
kernel -0.069885 0.270438 -0.162873 -0.288389 0.340517 -0.191337 0.460496 0.326453 -0.424859 -0.169129 
scalar -0.096663 0.408040 -0.173498 -0.566511 0.028749 0.056952 0.234741 -0.382026 0.266043 0.196820 
prefix 0.420280 0.135361 -0.012165 0.262136 -0.461442 -0.150232 0.040554 -0.139183 0.170382 0.372949 
const 0.874623 -0.278832 -0.564883 -0.084432 -0.322406 -0.377023 -0.247900 -2.455355 -0.344519 -0.993630 
trace -0.053388 0.170058 -0.418070 0.035088 -0.055888 -0.228319 0.096592 -0.128045 -0.539592 -0.130966 
job 0.155846 0.646917 0.384546 0.677485 0.393385 0.323212 0.119110 -0.098571 -0.484289 0.456252 
service -0.376170 0.901403 1.273675 1.438465 0.209303 0.615678 0.588659 0.060827 -0.774444 0.525937 
tests 0.122422 0.009949 -0.080005 -0.277744 -0.441952 0.166607 0.340100 -0.204714 -0.437705 0.516232 
square -0.768623 0.244131 -1.557653 -0.452528 0.609834 -0.575197 0.253806 -0.126855 -0.171812 0.243046 
symbol -0.001322 0.456060 -0.155360 0.108547 -0.219898 0.027960 -0.002281 -0.102585 0.106323 0.167683 
samples -0.281304 0.580833 -0.938175 -0.083002 0.405707 -0.694261 0.337750 0.801134 -0.320754 -0.596031 
wait 0.529555 -0.076130 -0.091539 1.116748 -0.419868 0.058677 0.311605 0.234383 -0.352767 0.472862 
keyword 0.142587 0.392353 0.014885 0.496739 -0.305979 0.164709 -0.175801 -0.482363 -0.336919 0.383706 
custom 0.112551 0.218501 0.015038 0.329421 -0.018306 0.065599 0.216044 -0.260332 -0.526927 0.090969 
complex -0.121468 0.252472 -0.759851 -0.899656 0.437360 -0.037786 0.193751 -0.284145 -0.093867 0.117393 
rule 0.264897 0.440258 0.218086 0.289556 -0.074175 -0.012999 -0.154699 -0.245709 0.182249 0.213129 
feature 0.017533 0.313588 -0.043074 -0.197062 -0.225684 -0.128362 0.220067 -0.073185 0.066898 0.323293 
queue 0.233961 0.276506 0.054665 0.268136 -0.588105 0.043570 0.259995 0.062815 -0.306167 0.338557 
numbers 0.340854 0.390052 -0.654972 -0.170956 0.023633 0.087783 -0.199225 -0.054810 0.002631 0.205952 
formatted 0.644479 0.810155 0.261942 -0.018511 -0.714144 0.133691 -0.469764 -0.129426 0.144394 -0.554292 
parses 0.502792 0.679698 0.439820 -0.073023 -0.714734 0.129435 0.036667 -0.040867 -0.013282 -0.591039 
insert 0.090837 0.411711 -0.154359 0.361584 -0.564013 -0.057370 -0.116246 -0.152863 -0.014735 0.383235 
memory 0.275276 0.335193 -0.017735 -0.084621 -0.181294 -0.173155 0.130080 0.204443 -0.097393 -0.037951 
including 0.358204 0.424771 -0.101504 0.166861 -0.587887 0.092563 -0.224459 0.003755 0.044601 0.325492 
simple 0.068702 0.220057 0.151670 -0.021711 -0.163768 -0.064118 0.289887 -0.427928 -0.248737 0.021433 
they 0.388171 -0.032355 -0.238674 -0.175553 -0.495745 0.218475 -0.157484 0.089405 -0.476159 1.080359 
namespace -0.001668 0.759973 0.590325 1.130387 -0.259952 0.393335 0.255016 -0.508404 0.065273 0.314715 
op -0.109233 0.475777 -0.057714 -0.069696 0.067179 -0.159405 0.107579 -0.487991 -0.126765 0.418546 
just 0.365986 0.006671 0.005773 0.133780 -0.134924 0.217063 0.303571 -0.135043 -0.251421 0.507509 
clear 0.235174 0.228258 0.146863 0.483259 -0.203887 0.024776 0.093217 0.214917 -0.250437 0.374498 
our 0.598583 0.080950 0.214902 0.260921 -0.537975 -0.116770 0.369563 0.235432 -0.161242 0.448932 
ensure 0.319372 -0.087858 0.289526 -0.124312 -0.248055 -0.028097 0.320042 -0.056524 -0.235350 0.797823 
both 0.432839 0.240023 -0.357695 -0.189473 0.039333 0.138469 0.046753 0.068497 0.162461 0.577614 
step 0.121568 0.483955 -0.647877 0.149502 0.219826 0.255735 0.198979 -0.213097 -0.288547 -0.023096 
q 0.164616 0.411629 -0.614092 0.026600 0.702666 -0.016382 0.188292 -0.234818 0.602845 0.227522 
init 0.116822 0.062894 0.056523 0.597678 0.165792 0.462713 0.206058 -0.926704 -0.271577 0.861572 
G 0.233474 -0.525735 -1.639595 -0.781566 0.371243 -0.843399 0.221377 0.375085 0.133458 0.284718 
yield 0.116308 0.417541 -0.356841 0.091040 -0.635259 -0.180087 -0.423511 0.099950 0.060532 0.515308 
absolute 0.305459 0.211407 -0.277397 -0.005280 -0.645400 -0.441711 0.544726 -0.051828 0.394446 -0.266574 
unique 0.083370 0.571483 -0.110417 -0.045556 -0.319682 -0.161923 -0.452463 0.036555 0.392687 0.372040 
matplotlib -0.848362 1.212845 0.441205 0.524269 0.110954 -0.482472 -0.037348 -0.306525 0.196194 -0.048301 
children 0.178510 0.298164 -0.180456 0.637695 -0.548403 -0.120778 -0.324718 0.077095 0.188811 0.742971 
tokens 0.421334 0.296947 -0.144227 0.279236 -0.292198 0.012989 -0.388204 -0.344916 -0.076760 -0.051610 
sample 0.102110 0.620022 -0.566781 -0.116120 0.511356 -0.321790 -0.075686 0.324220 -0.354998 -0.307146 
edges 0.109843 0.379416 -0.857442 -0.044331 -0.471073 -0.278225 -0.306829 0.741240 0.085735 0.445097 
removes 0.186122 0.437615 -0.188108 0.149543 -0.526764 -0.208993 -0.295938 0.120918 -0.043131 0.300358 
edge -0.077535 0.461736 -0.690734 -0.130143 -0.344031 -0.444149 0.105898 0.282482 0.457540 0.491842 
wrap 0.151253 0.022317 0.342135 0.195319 -0.162301 0.072883 0.100405 -0.342905 -0.354509 0.402611 
required 0.330291 0.163416 0.064671 -0.149106 -0.251203 0.076131 0.168797 -0.065519 0.090974 0.445625 
render -0.058522 0.352192 0.171713 0.270336 -0.400686 -0.296189 0.035231 -0.136697 -0.181558 -0.068124 
pod -0.625677 1.190235 0.972641 1.646022 0.188083 1.167467 0.894548 0.016957 -1.108559 0.385162 
extension 0.319493 0.311066 0.154667 0.037623 -0.471808 -0.170271 0.504848 -0.247292 0.220537 -0.032926 
mean -0.331042 0.623946 -0.845158 -0.237098 0.534955 -0.336014 0.199276 0.566598 -0.118870 -0.114362 
take 0.266984 0.286470 -0.104601 -0.056471 -0.326465 0.121719 0.121353 -0.139799 -0.125699 0.252663 
coefficients -0.011671 0.321780 -0.905204 -0.270006 0.586925 -0.606791 0.228322 -0.143518 0.216836 -0.312665 
decode 0.608518 0.200923 0.287041 -0.399124 -0.519212 -0.140564 0.598364 -0.269956 0.063622 -0.601662 
minimum -0.124745 0.827249 -0.818339 -0.461826 0.042312 0.164898 -0.311470 0.447735 0.200020 0.267125 
transformation -0.547898 0.830872 -0.583614 -0.203071 0.739268 -0.272410 0.341213 0.395786 0.020514 0.191326 
num 0.232378 0.561721 0.218261 -0.714427 -0.208656 -0.018421 -0.366822 -0.444793 0.319562 -0.157122 
append 0.102730 0.313044 0.112383 0.323297 -0.227208 -0.586929 -0.278490 -0.096638 0.140595 0.178663 
font 0.226024 0.487445 0.224000 0.697885 -0.501823 -0.535540 -0.320385 -0.057339 0.396460 -0.326725 
lower 0.134560 0.304811 -0.584607 -0.164773 0.325050 0.022713 0.154282 0.096661 -0.156221 0.179472 
regular 0.190535 0.222923 0.302931 -0.025727 -0.440649 -0.335069 0.144703 -0.477568 0.025050 0.194243 
term -0.499532 0.474736 0.367467 0.256772 -0.019588 -0.092855 0.604629 -0.940512 0.012289 0.612441 
provide 0.097249 0.253452 0.293930 0.020473 -0.012250 0.169072 0.116354 -0.224684 -0.550699 0.332179 
entries 0.115158 0.331074 -0.304899 -0.295302 -0.496925 -0.125389 -0.288001 0.073222 0.203381 0.477966 
per 0.377715 0.541260 0.150655 0.093292 0.088069 0.043604 -0.041700 0.096027 0.121937 -0.114493 
hook -0.023853 0.109383 0.504166 0.254820 -0.058783 0.020645 0.332302 0.103591 -0.671472 0.645568 
around 0.004456 0.238295 -0.014106 0.124760 0.474107 -0.150108 0.371039 0.067750 -0.125542 0.292277 
signal 0.511400 -0.013313 0.516360 0.544157 0.177095 0.205768 0.392684 -0.124433 -0.246989 0.209403 
implement 0.377185 -0.292152 0.436810 0.478243 0.263871 -0.269709 0.351348 -0.314722 -0.102697 0.427115 
stored 0.412156 0.065754 0.201864 -0.269555 -0.550255 -0.090216 0.268975 -0.112785 0.179552 0.189447 
sort 0.069792 0.391632 -0.395957 0.191943 -0.246448 -0.128229 -0.363322 0.112144 -0.246892 0.461922 
region -0.011663 0.444857 -0.193905 -0.222474 -0.135627 -0.152691 0.116945 0.142782 0.102311 0.402013 
updates 0.061030 0.452871 0.008929 0.100304 -0.180693 -0.273539 -0.039952 0.270692 -0.124596 0.056281 
move 0.384405 0.118224 -0.073821 0.661895 0.038863 -0.153728 0.396960 0.531862 -0.138074 0.295225 
definition 0.069059 0.446443 0.342237 0.068609 -0.453129 -0.193409 -0.001432 -0.274115 0.371147 0.348532 
numeric 0.453921 0.410614 -0.326684 -0.281292 -0.349552 0.171924 -0.022392 -0.292073 0.124358 0.240046 
different 0.031260 0.377546 -0.011482 -0.418780 -0.171647 0.135074 0.022104 -0.070825 -0.282773 0.440425 
grid 0.004694 0.539227 -0.275384 0.285301 0.192545 -0.439401 -0.339292 0.480815 0.241289 0.390273 
attempt 0.481177 0.085532 0.377478 -0.003115 -0.267873 0.074166 0.381682 0.071992 -0.251195 -0.003635 
recursively 0.048980 0.380304 -0.236702 0.225802 -0.551053 -0.197105 -0.313082 -0.016967 -0.156245 0.391735 
running 0.270369 -0.121861 -0.080164 0.261955 -0.235136 0.181185 0.338385 0.247722 -0.650419 0.525185 
factory -0.341740 0.303102 0.787721 0.694688 0.169569 -0.378662 0.265084 -0.247844 -0.222959 0.316254 
common 0.075182 0.183097 -0.171232 -0.035271 -0.242968 -0.258068 -0.218708 -0.074027 -0.183195 0.304141 
nested 0.109248 0.720794 -0.201921 0.068568 -0.597003 -0.020304 -0.423609 -0.073815 0.068403 0.096791 
future 0.168973 -0.037669 0.409716 0.294797 -0.017849 0.140624 0.132429 0.021244 -0.777785 0.619425 
multi 0.122805 0.586075 -0.043709 0.049536 -0.215161 -0.100191 -0.431756 -0.143613 -0.036219 0.172160 
produce -0.022255 0.583759 0.276307 0.001395 -0.293533 -0.295087 0.092267 -0.312811 0.167237 -0.141818 
css 0.099186 0.623329 0.449579 0.409649 -0.748619 -0.342941 0.104226 -0.635896 0.379919 0.213834 
== 1.168466 -0.322074 -1.040866 0.308320 1.096202 0.452136 0.031158 -1.091446 0.632810 0.538661 
inputs -0.174289 0.483247 -0.312360 0.040083 -0.079491 -0.255564 -0.053807 0.100205 -0.338422 0.075581 
added 0.070556 -0.163668 0.388769 0.183868 -0.326286 -0.400914 -0.020976 -0.296763 0.228376 1.062856 
control 0.363577 0.152740 -0.037282 0.082926 -0.051463 0.033954 0.082752 -0.151895 -0.359383 0.135315 
seconds 0.908751 0.449881 0.049284 0.086074 -0.140544 0.627350 -0.161409 -0.242510 -0.379068 -0.289834 
action 0.089699 0.121957 0.209069 0.513384 -0.065406 0.037463 0.319765 -0.253592 -0.304962 0.271267 
supplied 0.014121 0.402679 -0.077119 -0.020253 -0.427287 -0.034918 0.065526 -0.083872 -0.099910 0.308564 
contained 0.196769 0.356096 -0.390278 0.005515 -0.397892 -0.079345 -0.126823 0.062791 0.559868 0.748818 
loads -0.113583 0.654067 0.462022 -0.219716 -0.414765 -0.271940 0.385483 -0.054370 0.173024 -0.281539 
protocol 0.201065 0.096528 0.754802 0.302939 -0.086362 -0.179968 0.777861 0.010385 -0.077090 0.031005 
pool 0.237693 0.129580 0.214614 0.387957 -0.065920 -0.005501 0.561331 0.290310 -0.113353 0.564867 
pass 0.097010 0.121801 0.159432 0.234497 -0.084143 0.035272 0.207740 -0.004931 -0.420121 0.625207 
port 0.721062 -0.134720 0.520544 0.483138 -0.191133 -0.263851 0.671729 -0.271993 0.099950 -0.269667 
container -0.075113 0.311052 0.034467 0.440104 -0.425952 -0.399631 0.080910 0.338604 0.247640 0.350827 
os 0.156321 0.137792 0.442687 0.738525 -0.113855 -0.255874 0.974216 -1.043102 0.147597 0.371619 
import 0.219754 0.345909 0.227043 0.079030 -0.559951 0.141172 0.480361 -0.310664 0.060210 0.261048 
post -0.248695 0.477123 0.913939 1.038961 0.035396 0.256511 0.764475 0.132198 -0.768924 0.126526 
coordinate -0.175210 0.810236 -0.556535 -0.045097 0.337312 -0.292827 0.370911 0.636455 0.341752 0.109124 
put -0.007509 0.637191 0.802437 0.835836 0.091951 0.323225 0.686237 0.041315 -0.503405 0.181748 
paths 0.417132 0.306609 -0.016578 0.170993 -0.794858 -0.128074 -0.138284 -0.012397 -0.033932 0.078549 
also 0.273720 0.135904 -0.116992 -0.057729 -0.164986 0.141078 0.234221 -0.299135 -0.085842 0.543787 
matrices -0.173041 0.487788 -0.771894 -0.716795 0.640222 -0.206319 -0.001575 0.217145 -0.222464 0.103767 
layer -0.145030 0.623932 -0.273563 0.056359 -0.061755 -0.216849 0.146676 0.393351 -0.064990 0.021002 
fetch 0.303900 0.340813 -0.019845 0.245472 -0.512249 -0.231456 -0.024575 0.393294 -0.063605 0.051103 
most 0.450639 0.345920 -0.352917 -0.038800 -0.292241 -0.080338 0.061980 0.314263 0.067351 0.317858 
& 0.657027 0.265984 -0.096137 0.165669 0.627321 0.126153 -0.010520 -0.328673 0.225634 0.107823 
previous 0.312687 0.154518 0.046809 0.201364 -0.345273 -0.117981 0.192915 0.184162 0.057834 0.246897 
suitable 0.294848 0.295920 0.308940 -0.056521 -0.315466 -0.333299 0.091564 -0.229711 0.188179 -0.067491 
forward 0.412536 0.119911 -0.102810 0.074964 0.046750 0.004730 0.206953 0.313859 -0.324572 -0.055120 
canvas 0.051372 0.637757 -0.063218 0.721925 0.135084 -0.336148 0.036001 0.417115 0.029568 0.839804 
layout 0.073595 0.347630 0.056589 0.398313 -0.118006 -0.500200 -0.249695 0.012455 0.472641 0.422191 
chunk 0.365039 0.629352 0.036843 0.042012 -0.693728 -0.207706 0.012352 0.369886 -0.019579 -0.441051 
parsed 0.462443 0.220116 0.588154 -0.243220 -0.747909 0.009228 -0.214731 -0.066504 -0.256891 0.157433 
merge -0.127048 0.470346 -0.107929 0.048126 -0.352297 -0.343448 -0.451784 0.127426 -0.314463 0.074041 
alias 0.031394 0.101178 0.446129 0.244264 0.049192 -0.333574 0.081465 -0.183629 0.129236 0.421091 
instead 0.405794 0.169629 0.286711 -0.071838 0.070518 0.172363 0.436000 -0.348134 0.091034 0.278158 
serialize 0.330645 0.461760 0.491646 -0.326972 -0.562254 -0.066003 0.152061 -0.295383 0.018401 -0.800370 
component -0.022028 0.517859 0.148811 0.094333 -0.128840 -0.178640 0.118099 -0.022371 0.112732 0.257502 
actual 0.130459 0.211100 0.232838 0.035922 -0.136463 0.214445 0.499252 -0.191194 -0.186003 0.302331 
initial -0.021184 0.506680 -0.169382 0.286899 0.096985 -0.063648 0.241139 0.168031 -0.307284 -0.155461 
normal -0.190400 0.729321 -0.381388 0.066228 0.305606 -0.163706 0.495912 0.480287 -0.487115 -0.246663 
whose -0.035725 0.536909 -0.446529 -0.034343 -0.390945 -0.052093 -0.057464 -0.141434 0.240149 0.558031 
least 0.629559 -0.031017 -0.973508 -0.101984 -0.626282 0.039298 0.060510 0.268952 0.002067 0.712458 
else 0.534550 -0.253126 -0.529047 -0.151949 -0.282863 -0.021819 0.510779 -0.493778 0.384121 0.761739 
starting 0.389285 0.362568 -0.356825 0.333274 -0.610452 -0.384177 -0.002705 0.516216 -0.016393 -0.073046 
encoded 0.783400 0.387557 0.225109 -0.282666 -0.659867 0.058227 0.324308 -0.174721 0.291068 -0.223325 
main 0.077924 0.085888 -0.157651 0.506168 -0.004904 -0.067403 0.090219 0.045330 -0.472340 0.206824 
classes -0.036928 0.219391 0.153381 0.017288 -0.310074 -0.092761 -0.046018 0.019796 -0.310310 0.689446 
turn 0.421348 0.384373 0.086922 -0.015145 -0.306000 -0.207563 -0.062833 -0.069191 -0.030445 -0.355777 
probability -0.270146 0.750042 -1.023722 0.198872 0.624303 -0.374037 0.469268 0.797623 -0.514685 -0.440203 
training -0.186583 0.367534 -0.168762 -0.202713 -0.109623 -0.540856 0.842389 0.674212 -0.378581 -0.416114 
mark 0.450386 0.193626 0.123874 0.339361 -0.326322 0.374242 -0.013344 -0.120370 -0.554238 0.456440 
calling 0.070287 0.183129 0.090322 0.131199 -0.169717 -0.013669 0.375713 -0.184937 -0.342498 0.441456 
atom -0.238968 0.395443 -0.167333 -0.935713 0.376247 -0.812221 -0.507290 -0.746111 0.883990 0.294682 
components 0.128541 0.432127 -0.207763 0.065208 -0.284199 -0.244775 0.120574 0.080258 0.102493 0.099553 
registered 0.026145 0.105844 0.368189 0.457872 -0.407899 -0.023686 0.330676 -0.086400 -0.155639 0.610819 
net -0.617071 0.887681 -0.524311 -0.466958 1.277513 -0.346545 0.218474 -0.587437 0.349493 -0.179453 
changes 0.080223 0.077992 0.109772 0.417898 -0.151778 -0.086890 0.329847 0.061442 -0.433659 0.450121 
missing -0.039593 0.322622 -0.299783 -0.317658 -0.449221 0.082567 0.068428 -0.064030 0.034652 0.758874 
app -0.069443 0.270399 0.761709 0.438483 -0.098945 -0.062295 0.482662 -0.334175 -0.350345 0.323738 
plugin -0.028551 0.377425 0.423909 0.238285 -0.349701 -0.102775 0.357343 -0.088086 0.006627 0.243235 
weights 0.006213 0.579327 -0.426073 -0.432366 0.090723 -0.209164 0.058803 0.570100 -0.141779 -0.286068 
raises 0.474016 -0.356797 0.463937 -0.178936 -0.208597 0.003958 0.708961 -0.436497 0.336533 0.986839 
re 0.458153 -0.021614 0.017444 -0.047907 -0.185286 -0.243457 0.186504 0.000521 -0.099490 0.061234 
positive 0.112746 0.104673 -0.634099 -0.585243 0.476354 0.127646 0.069571 -0.430718 0.127539 0.484333 
settings 0.339197 0.167226 0.404387 0.247267 -0.598830 -0.221404 0.017224 -0.052883 -0.039566 0.103052 
description 0.378411 0.408670 -0.049846 0.164067 -0.220422 -0.359210 0.025241 -0.459818 0.447591 -0.131403 
device 0.109926 0.059610 -0.081973 0.029827 -0.387880 -0.370431 0.549811 0.419785 -0.212712 0.236324 
bounds 0.103797 0.387623 -0.642885 -0.120542 0.321684 -0.031590 0.230853 0.097774 0.468217 0.492583 
cluster -0.167898 0.891909 0.291310 0.579402 0.134769 0.388339 0.336930 0.618861 -0.323008 0.305004 
subclass -0.044454 0.142282 0.704172 -0.078244 -0.142454 -0.227506 0.211053 -0.295003 0.147641 0.692404 
correct 0.133565 0.350983 0.148664 -0.131974 -0.156733 0.075682 0.227211 0.078829 -0.004337 0.386366 
o 0.729621 0.345070 0.735655 -0.167252 0.134917 0.308490 0.386975 -0.497842 0.241436 -0.204126 
frequency 0.093413 0.637991 -0.484969 0.162255 0.404641 -0.277635 -0.139306 0.472482 -0.576835 -0.573010 
formats 0.444015 0.523935 0.167939 -0.153293 -0.121512 -0.048351 -0.174750 0.086510 0.044866 -0.232196 
sequences 0.546383 0.330563 -0.362425 -0.210284 -0.204729 -0.081079 -0.290601 0.105002 -0.095518 -0.091100 
fill 0.171236 0.326152 -0.123803 0.052963 -0.197438 -0.235265 -0.106933 -0.145098 0.103310 0.287863 
allow 0.354957 -0.056664 0.162607 0.042850 -0.046059 0.207363 0.132994 -0.110244 -0.444881 0.432209 
enable 0.375136 -0.125581 0.305362 0.446754 0.156114 -0.215289 0.292556 0.195961 -0.738419 0.164914 
finds -0.037945 0.222851 -0.180285 -0.126547 -0.151449 -0.387783 -0.201279 0.208785 -0.035989 0.508571 
uses 0.166888 0.374178 0.332683 0.100566 0.261839 0.047295 0.416288 0.144787 -0.186011 0.138722 
condition 0.276334 -0.014430 -0.250720 0.072295 0.314323 -0.129823 0.276736 -0.206834 0.349502 0.877877 
messages 0.534640 0.166946 0.441561 0.443326 -0.186194 0.061385 0.149172 0.416774 -0.519131 0.313391 
execution 0.204255 -0.083719 0.166333 0.421992 -0.135119 -0.028230 0.376610 -0.107559 -0.694974 0.494978 
join 0.216566 0.400255 -0.602764 0.219187 0.088737 -0.565428 -0.345859 -0.133497 0.518049 0.344152 
height -0.002087 0.728438 -0.867535 0.796422 0.424108 -0.466355 0.107934 0.643463 0.824865 0.302381 
watch -0.625179 1.507193 0.613077 1.075904 0.181873 1.137461 0.064529 -0.299953 -0.482895 0.723142 
writes 0.114365 0.370999 0.160711 -0.295183 -0.539193 -0.299258 0.400869 0.270804 -0.175089 -0.440331 
following 0.481506 0.333598 0.070100 0.073127 -0.024011 -0.015398 -0.029059 -0.080088 -0.082631 0.060877 
blocks 0.371230 0.259414 -0.139495 0.143562 -0.369512 -0.052034 0.010329 0.137407 -0.386822 0.261421 
particular -0.065532 0.539229 -0.270281 0.030591 -0.444043 -0.019909 0.040527 0.098478 -0.060724 0.316367 
sql -0.233822 0.818692 0.598309 0.144588 -0.450984 -0.113222 0.093932 -0.172070 -0.055134 0.389808 
old 0.296377 0.028997 0.366675 0.040570 -0.241649 -0.335223 0.120354 -0.238791 0.022143 0.385652 
descriptor 0.389517 -0.095229 0.534610 0.218855 -0.562900 -0.314061 0.878246 -0.028964 0.178011 -0.002359 
host 0.631916 -0.041669 0.508187 0.384535 -0.257244 -0.209716 0.331241 -0.442516 0.301806 -0.060764 
rules 0.227313 0.374624 0.054961 0.159631 -0.308366 -0.049927 -0.090945 -0.138873 -0.140411 0.136994 
exist 0.661576 -0.877937 0.086837 -0.555551 -0.780490 0.117542 1.134718 -0.369430 0.145949 1.226670 
partially -0.434171 1.193341 0.655966 1.083190 -0.194618 0.875801 0.672275 0.602488 -0.854992 0.505309 
under 0.186000 0.493275 -0.102616 0.271050 -0.379691 0.013997 0.037653 -0.186396 0.048468 0.349643 
remote 0.213782 0.096979 0.339456 0.050295 -0.440167 -0.262500 0.517494 0.057481 -0.162286 0.088506 
bits 0.795289 0.432373 -0.205698 -0.566141 -0.139846 0.099505 -0.150856 0.181876 0.233275 -0.189474 
requested 0.217334 0.393551 -0.226337 -0.023136 -0.689960 -0.070003 0.039718 0.232841 0.201665 0.222229 
docstring 0.295156 0.113084 0.336321 0.533259 -0.144634 -0.162550 0.203390 -0.219296 0.113829 0.236400 
active 0.100438 0.079264 0.242167 0.185986 -0.424860 0.081276 0.407425 0.230301 -0.150688 0.731390 
complete 0.176605 0.067574 0.021973 0.455939 -0.279502 -0.109571 0.318850 -0.026613 -0.179668 0.301476 
down 0.368705 -0.014854 0.048230 0.481302 -0.016922 0.011909 0.206429 0.277481 -0.314873 0.637495 
u 0.753586 -0.354569 -0.928995 -0.155803 0.410728 -0.555739 0.320193 -0.485485 0.519930 0.153973 
optionally 0.213827 0.369390 -0.293748 0.075313 -0.017869 -0.313926 0.409911 0.137691 0.170759 -0.203664 
seq 0.339505 0.132520 -0.646729 -0.052668 -0.207116 0.009168 -0.479665 -0.505428 0.238905 0.461305 
you 0.410092 -0.341860 0.202046 -0.132562 -0.327044 0.171391 0.676045 -0.267329 -0.382985 0.676797 
selected 0.015177 0.236833 -0.214433 0.036088 -0.380723 -0.174379 0.021555 0.181060 0.178720 0.641356 
setup 0.336760 -0.424919 -0.039765 -0.009354 -0.370505 0.499963 0.852726 -0.107700 -1.003422 1.020396 
screen 0.308483 0.519572 -0.548166 0.767958 0.036168 0.004928 0.121668 0.620439 -0.111253 0.299822 
setting 0.303774 0.140153 0.218759 0.337762 -0.216010 -0.026466 0.084524 0.038312 -0.103576 0.396633 
rfc 1.283548 0.765645 1.032331 -0.845651 0.497053 0.522580 -0.284345 0.204431 0.087147 -0.611585 
chart -0.281001 0.658186 0.273991 0.291175 -0.072851 -0.918695 -0.233831 0.156799 0.795296 0.130712 
utility 0.089904 0.234789 0.226300 0.186960 0.112918 -0.109750 0.137876 0.020608 -0.583888 -0.053203 
bound 0.029856 -0.009556 0.019531 0.278616 0.144227 -0.075577 0.325394 -0.324822 0.083586 0.657390 
sys 0.653533 0.043887 0.165345 0.173797 -0.564135 0.058022 0.493401 -0.169116 -0.208884 -0.087683 
show 0.241983 0.362681 0.267276 0.194708 0.204236 -0.057930 0.088727 0.185043 -0.210161 0.170758 
kwargs 0.180911 0.126371 0.412434 0.403291 -0.378272 -0.399512 0.006725 -0.584296 -0.213318 0.109493 
allows 0.192346 0.331724 0.068135 0.250528 -0.262200 0.053861 -0.126715 -0.169950 -0.289593 0.412845 
storage -0.234706 0.439296 0.663453 0.226740 -0.316978 -0.110604 0.217593 -0.145788 -0.272958 0.224489 
script 0.758766 -0.234947 0.346033 0.583257 -0.161951 -0.306210 -0.053436 -0.479195 -0.079454 0.121025 
reverse 0.012893 0.372089 -0.198957 0.056015 0.047066 0.017523 -0.289182 -0.087104 -0.013123 0.392805 
operations 0.118155 0.318799 -0.018833 -0.079777 -0.066250 -0.079326 0.002844 0.250805 -0.409640 0.375756 
verify 0.164985 0.127295 0.027610 0.067682 -0.518204 0.031137 0.278622 -0.039236 0.166276 0.721007 
mouse -0.038397 0.376583 -0.025445 1.113347 0.250929 -0.254877 0.337010 0.625200 -0.668733 0.569980 
need 0.571253 -0.148901 0.183115 -0.141007 0.043637 0.053466 0.309176 0.003243 -0.462699 0.697685 
backend -0.004037 0.358161 0.433590 0.266544 0.128496 -0.131075 0.379689 0.154567 0.199329 0.538254 
inside 0.142717 0.266191 -0.252112 0.256583 -0.059587 0.078536 0.273757 0.038091 -0.039616 0.489183 
total 0.287945 0.408116 -0.429419 -0.045181 -0.048588 -0.169503 -0.243455 0.180038 -0.141503 0.148335 
known 0.400127 0.153843 -0.104515 -0.176942 -0.354672 0.023780 0.165236 0.014580 0.005196 0.498655 
errors 0.433331 0.002657 0.332876 0.082036 -0.517508 -0.132247 0.288459 -0.109567 -0.360584 0.452339 
j 0.802354 0.030277 -1.115882 0.147660 0.891262 -0.259584 0.049902 -0.516558 0.588615 -0.252879 
affine -0.512216 1.152528 -0.000451 -1.033342 0.262145 -0.859865 0.148133 -0.279806 0.749117 -0.084738 
pandas -0.166032 0.514078 0.620617 -0.718530 -0.073795 -0.553130 0.030521 -0.170032 0.113830 -0.245510 
np 0.835459 -0.141164 -0.258557 -0.604796 0.638247 -0.219199 -0.460887 -0.945731 0.272587 0.181252 
encode 0.599296 0.357426 0.424943 -0.259989 -0.508805 -0.025779 0.036863 -0.118638 -0.164466 -0.385195 
place 0.263090 0.296581 -0.338040 0.261392 -0.261463 -0.244323 0.009393 0.229990 0.160171 0.451828 
long 0.746302 0.113354 0.229571 -0.050601 -0.285673 -0.142167 -0.045995 -0.437178 -0.017874 -0.290523 
suite 0.401674 -0.189277 -0.359375 0.229412 -0.785455 -0.438709 -0.146650 -1.019334 -0.866587 -0.527463 
sure 0.321720 -0.127322 0.277039 -0.208060 -0.123725 0.122893 0.222758 -0.095887 -0.417789 0.976588 
expressions -0.053045 0.388700 0.002787 -0.059302 -0.266878 -0.281613 -0.097380 -0.202447 -0.394567 0.435957 
min 0.111957 0.383530 -0.867965 0.168358 0.590305 -0.399604 0.075404 0.154598 0.206054 0.002901 
arrow -0.725473 1.366769 0.267336 0.780063 0.236358 -0.823877 -0.981985 -0.887878 0.116899 -0.021179 
units 0.064145 0.686234 -0.265417 0.062238 0.109989 -0.165113 -0.194833 0.297011 0.128493 -0.001825 
https 0.021429 0.724823 1.047341 -0.388360 2.064651 -0.357585 -0.303742 -0.509461 -0.241310 -0.280915 
ascii 0.762662 0.203551 0.177047 -0.600990 -0.622134 -0.115827 0.211182 -0.177720 0.255568 -0.520307 
mask -0.022784 0.521658 -0.268822 -0.494887 -0.012494 -0.178624 0.094512 0.047850 0.445939 0.077214 
cast 0.225451 0.272053 0.527090 -0.756501 -0.325589 -0.120823 0.089356 -0.648000 0.067524 -0.070739 
ndarray 0.216870 0.526339 0.042337 -0.747895 -0.450978 0.031594 0.218293 -0.310494 0.392279 0.085663 
way 0.329348 0.152719 0.050126 -0.249588 -0.125279 0.180779 0.052186 0.006181 -0.385464 0.437608 
selection 0.019255 0.305482 -0.110778 0.215062 -0.244611 -0.271368 0.013145 0.136968 -0.159598 0.287135 
elementwise 0.315309 0.487718 -0.451736 -0.702405 1.132446 -0.020920 0.028139 0.357446 0.062083 -0.095467 
how 0.240470 0.098936 0.165108 0.057171 -0.239695 0.011633 0.193743 0.057581 -0.456283 0.352934 
second 0.138777 0.312235 -0.767369 0.287005 0.132576 0.006375 -0.009134 -0.274001 0.137372 0.306440 
tags 0.336938 0.163116 0.141857 0.354593 -0.391000 -0.332506 -0.236768 -0.392467 0.011778 0.237718 
factor -0.245555 0.413058 -0.855954 -0.337136 0.380871 -0.151359 -0.004572 -0.262386 -0.209618 0.099732 
7 1.510036 0.382602 0.516943 -1.150094 1.607318 0.823967 -0.559614 -0.301881 -0.112517 -0.134633 
registers -0.089048 0.219150 0.306073 0.202374 -0.111163 -0.214087 0.143807 0.098359 -0.459778 0.426216 
special 0.583246 -0.079616 -0.025834 0.283089 -0.317926 0.087577 -0.020137 -0.193055 -0.345003 0.380298 
limit 0.010983 0.497462 0.112265 0.589001 -0.035101 0.399049 0.209258 0.245217 -0.342865 0.371081 
expr 0.244454 0.019034 0.320620 -0.081405 0.000779 -0.659279 0.166746 -1.169819 -0.318886 -0.326135 
logging 0.410659 -0.137634 0.504979 0.346309 -0.312273 -0.156238 0.331402 0.293807 -0.764992 0.135855 
! 0.888869 -0.330402 -0.311764 -0.175204 0.535434 0.089291 0.096352 -0.594009 0.097692 0.282189 
arg 0.321082 -0.023047 0.112799 -0.088595 -0.169418 0.112726 -0.027911 -0.862624 -0.108321 0.422582 
pointer 0.446141 0.433942 0.229911 -0.089322 -0.420627 -0.120589 0.152737 -0.172715 0.418850 -0.244403 
disk 0.206870 0.287509 0.168177 -0.087916 -0.582335 -0.365428 0.407777 0.604980 -0.125893 -0.120795 
supported 0.271592 -0.051528 0.107500 -0.327241 -0.226768 -0.036416 0.070242 -0.235150 0.043749 0.772966 
entity 0.266277 0.279194 0.132194 -0.011748 -0.414060 -0.064005 0.173450 0.110391 0.173334 0.535120 
density -0.323649 0.635046 -1.004121 -0.166851 0.619864 -0.238324 0.508055 0.565903 -0.766866 -0.458341 
uri 0.512506 -0.204681 0.444986 -0.040447 -0.341277 -0.637433 0.242658 0.036984 0.234859 -0.264323 
newly -0.207425 0.259496 0.720005 0.114556 -0.230548 -0.927887 -0.610480 -0.280973 0.676287 1.043502 
power 0.078258 0.221283 -0.891103 -0.629259 0.493882 -0.074457 0.154808 -0.063824 0.126270 0.111758 
tables 0.056712 0.126529 0.168251 -0.218649 -0.182771 -0.445081 -0.137299 -0.035415 -0.042153 0.397772 
discrete 0.167352 0.804519 -0.928178 -1.037196 0.940645 -0.002195 0.289734 0.547485 0.162613 -0.623604 
pre 0.350568 0.068046 0.252851 0.120866 -0.000065 0.059632 0.269506 0.246991 -0.527951 0.258789 
always 0.562402 -0.155640 0.146836 -0.329160 -0.122974 0.147791 0.369407 -0.365986 -0.121217 0.549948 
parts 0.545106 0.148442 -0.061739 -0.051371 -0.596110 -0.456980 -0.146999 0.021575 0.069876 -0.068341 
sentence 0.512532 0.755224 -0.296219 0.211753 -0.323502 -0.232371 -0.031563 0.045911 0.082993 -0.480950 
vectors -0.052582 0.468374 -0.515483 -0.436683 0.504347 -0.383018 -0.012103 0.547986 -0.238163 -0.161107 
timeout 0.554158 -0.324765 0.336579 0.349418 -0.184152 0.066775 0.288053 -0.347800 -0.557663 0.321327 
loaded 0.221089 0.222821 0.336188 -0.058358 -0.810945 0.139137 0.341809 -0.040987 -0.186789 0.713520 
connected 0.310750 -0.120273 0.072955 -0.241424 -0.016773 -0.221483 0.471514 0.453428 0.091538 0.415878 
basic 0.159190 0.359333 0.041465 0.029229 0.038271 -0.127400 0.123111 0.012612 -0.270979 0.110037 
struct -0.275310 0.524334 0.353580 -0.068040 -0.577067 -0.357258 -0.207395 -1.154155 0.118137 0.114816 
zeros -0.078547 0.607497 -1.020843 -0.640542 0.417852 -0.376388 0.167205 0.277797 -0.084748 -0.200554 
itself 0.443883 0.171552 0.049451 -0.013420 -0.511389 -0.039582 0.169213 -0.253297 0.111093 0.461444 
day 1.122354 0.739269 0.030396 -0.009204 -0.518962 0.972769 -0.339585 0.208569 -0.291035 -0.458236 
logger 0.443967 -0.177653 0.677752 0.610568 -0.262930 -0.105646 0.320942 0.023763 -0.470042 0.265172 
val 0.687155 -0.030125 0.110174 -0.077293 -0.143009 -0.480016 -0.566566 -0.460436 0.709998 0.075961 
define 0.057148 0.024058 0.117241 0.232369 0.001753 -0.332630 0.092060 -0.056564 -0.426944 0.350668 
extra 0.418244 0.187505 0.106559 0.537743 -0.282695 -0.155244 -0.273535 -0.295168 -0.370239 0.150108 
rdd -0.199586 -0.208816 0.196157 -0.023743 -0.190836 -1.147504 -0.665246 0.415517 0.421840 0.276634 
receive 0.054955 0.027447 0.618437 0.102948 -0.583393 -0.083879 0.589302 -0.068355 -0.333222 0.494233 
features 0.110739 0.366331 -0.106384 -0.017593 0.140972 -0.262299 -0.173673 -0.105676 -0.123680 -0.105155 
records 0.455088 0.275781 -0.011447 0.141508 -0.301627 -0.296352 -0.171953 -0.176819 0.127159 0.141497 
locale 0.217397 0.627011 0.276876 0.526011 -0.462994 -0.141410 0.024068 0.144504 0.067262 -0.140802 
bool 0.371189 0.131066 0.301165 -0.043581 0.084595 0.049798 0.139132 -1.082855 0.295732 0.388450 
having 0.300414 0.171365 0.025326 0.044635 -0.204484 -1.007800 -0.845911 -0.096399 0.581127 0.533957 
lock 0.340108 0.069769 0.474935 0.168083 0.162567 0.066157 0.376363 0.163896 -0.115976 0.180628 
repr 0.658042 -0.034775 0.004179 0.088070 0.102149 0.195577 0.051501 -0.641507 -0.103064 0.131499 
look 0.414302 0.088238 0.367998 0.248587 -0.381358 0.049751 0.245761 -0.176609 -0.293725 0.216640 
library 0.409695 0.166413 0.216467 0.030799 -0.346595 -0.027655 0.386645 -0.102074 -0.295070 -0.107326 
example 0.585120 0.187948 0.077352 0.094884 0.363872 0.022229 0.070979 -0.274914 -0.087632 -0.074589 
$ 0.780892 0.067033 -0.286474 0.155538 0.591092 -0.133275 0.103332 -0.660307 -0.015844 -0.558433 
modify 0.481083 0.319521 0.083593 0.113991 -0.584219 0.237329 -0.131950 -0.018584 -0.314959 0.029502 
negative 0.242154 0.053153 -0.412993 -0.398830 0.422450 0.006654 0.188422 -0.201276 0.138197 0.524398 
times 0.278568 0.205733 -0.315606 -0.017134 0.060055 0.084458 -0.078092 -0.024846 -0.443601 0.390143 
dot 0.077340 0.522150 -0.743394 -0.462820 -0.393660 -0.422313 0.094421 -0.010848 0.112573 -0.294128 
terminal 0.437205 0.163334 -0.072603 0.327721 -0.375389 -0.191020 -0.006607 0.362926 -0.018621 0.215308 
terms -0.142002 0.258590 -0.875226 -0.075788 0.234499 -0.355164 0.099143 -0.138330 -0.190578 0.128226 
validation 0.167937 0.019074 0.317784 -0.061927 -0.122455 0.042666 0.425608 -0.059314 -0.312049 0.605152 
org 0.579789 0.712816 1.445106 -0.614433 1.973387 -0.139328 -0.368690 -0.210461 0.034956 -0.248971 
degree -0.089445 0.191703 -1.103306 -0.337934 0.755387 -0.373583 -0.099281 0.038962 -0.002127 0.106634 
prepare 0.246738 0.220246 0.413129 0.102155 -0.312851 0.092333 0.253739 0.299535 -0.517086 0.273712 
member 0.132204 0.370382 0.072344 0.140393 -0.694201 -0.192077 -0.167726 -0.181186 0.426602 0.496539 
www -0.076851 0.953238 1.188187 0.053101 2.017189 -0.096853 -0.306661 -0.725284 -0.307590 -0.409596 
flags 0.494832 0.087860 0.260337 0.389515 -0.319460 -0.320645 0.165226 -0.179108 0.158534 0.185731 
ordered -0.043623 0.387296 -0.381241 -0.008190 -0.285198 -0.171720 -0.250710 -0.278540 0.135570 0.326152 
would 0.405530 0.070766 -0.041517 -0.293121 -0.308414 0.102105 0.075783 -0.144574 -0.222964 0.837758 
bind 0.066936 0.083933 0.483227 0.613170 -0.257471 -0.214149 0.272598 -0.267922 -0.167732 0.275477 
focus 0.189134 0.066049 -0.241161 1.088076 -0.144858 -0.285379 -0.052452 0.111950 0.261332 0.798312 
exit 0.584920 -0.350345 0.153432 0.282279 -0.505189 -0.070084 0.455033 0.406846 -0.874752 0.230615 
assert 0.261180 -0.196983 -0.170596 -0.290284 0.164020 0.088126 0.134191 -0.202310 -0.075259 0.884495 
bottom 0.427995 0.248480 -0.475417 0.605940 0.186100 -0.621848 -0.312047 1.143924 0.588946 0.412689 
except 0.268142 -0.101387 0.184663 0.080574 -0.429340 -0.039273 0.063808 -0.497685 -0.049529 0.763555 
\ 0.526536 -0.312136 -0.164702 0.113328 0.351134 -0.668324 -0.127194 -0.311049 0.104345 -0.022038 
spec 0.045867 0.476516 0.672155 -0.181919 -0.318335 -0.223623 -0.127774 -0.326877 0.070132 -0.034804 
runs 0.119973 0.093324 0.151475 0.381525 -0.114863 -0.005685 0.131693 0.078466 -0.729970 0.414779 
assign -0.054824 0.280853 -0.070757 0.202664 -0.362647 -0.236851 -0.007865 0.032808 0.047067 0.434413 
slices -0.207610 0.758630 -0.478377 -0.564966 -0.075504 -0.049815 -0.429017 0.079954 0.093674 0.248243 
saves -0.028505 0.320963 0.376964 -0.223171 -0.452956 -0.423168 0.139612 0.162402 -0.063045 -0.157191 
estimator -0.260568 -0.006355 -0.316424 -0.451704 0.544201 -0.593228 0.658545 0.417251 -0.830008 -0.292008 
visit -0.237482 0.479563 0.429476 0.243524 -0.995088 -0.203400 0.243933 -0.843733 0.113419 0.888737 
compare 0.045305 0.213126 -0.133806 -0.066470 -0.115028 -0.496948 -0.378108 -0.225870 -0.119685 0.388512 
disable 0.193203 -0.058953 0.114345 0.643050 0.052585 -0.131145 -0.011416 0.091398 -0.605179 0.210125 
contain 0.321264 0.177016 -0.175884 -0.488923 -0.285911 -0.051255 -0.086016 -0.022912 0.003770 1.020263 
na 0.101135 0.178555 -0.562600 -0.703651 -0.162578 -0.070002 -0.030743 -0.048136 -0.007209 0.754200 
diagonal -0.584353 0.360960 -0.547881 -0.843138 0.583276 -0.692135 0.362553 0.231337 -0.060436 0.011709 
tensors -0.156016 0.744911 -0.532659 -0.709656 0.164729 -0.411927 -0.296722 0.145207 -0.199513 0.030454 
entire 0.272401 0.512389 0.071019 0.153272 -0.353239 -0.313266 -0.069429 0.281606 0.194569 0.092143 
upper 0.116586 0.425999 -0.824429 -0.180794 0.421832 -0.207730 0.187099 0.359610 0.143788 0.022224 
report 0.376553 -0.049836 0.025722 0.033768 -0.398230 -0.365555 0.096949 -0.277659 -0.356604 -0.332247 
subset -0.018768 0.362248 -0.021569 -0.239359 -0.255634 -0.398831 -0.201887 0.186011 0.131510 0.362091 
expected 0.289909 -0.010296 -0.180246 -0.087422 -0.330211 0.060074 0.147322 -0.073403 -0.143104 0.629831 
handles 0.172301 0.241190 0.218756 0.042417 -0.026024 0.023560 0.083248 0.080407 -0.401353 0.311432 
certificate 0.028986 0.645380 0.754360 0.972377 -0.116921 0.325376 0.977479 0.344435 -0.092584 0.113624 
well 0.402300 0.194539 0.124913 -0.091200 -0.470729 -0.266735 -0.264310 -0.210313 -0.135113 0.276548 
statistics 0.209161 0.347985 -0.250952 0.069530 0.044771 0.091481 -0.084082 0.342427 -0.339603 -0.031219 
sends 0.311296 0.117324 0.404741 0.579883 -0.327449 -0.114340 0.210632 0.009266 -0.452538 0.189365 
scope 0.163515 0.094019 -0.027833 0.652359 -0.540130 -0.174582 -0.069839 -0.308734 -0.418417 0.452352 
words 0.385774 0.508110 -0.558193 0.128434 -0.306740 -0.261586 -0.558638 0.224017 -0.131636 -0.160904 
estimate -0.019218 0.515117 -0.688651 -0.202624 0.689634 -0.211369 0.228997 0.452901 -0.464785 -0.289518 
traceback 0.349739 0.037749 0.227996 0.015040 -0.757479 -0.045115 0.077761 0.050933 -0.296983 -0.020465 
similar 0.223876 0.246534 0.255854 0.053981 -0.144445 -0.045315 0.036474 -0.138167 -0.178352 0.314867 
initializes -0.083038 0.210525 0.187115 -0.003357 -0.149293 -0.303824 0.108192 -0.085584 -0.285209 0.224548 
db 0.329896 -0.146212 0.151315 0.116623 -0.191111 -0.324477 0.302108 -0.012976 -0.072221 0.002994 
operators -0.285539 0.495615 -0.282317 -0.000764 0.612635 -0.394851 0.248256 -0.028723 -0.377872 0.076168 
onto 0.065453 0.223953 -0.325859 0.135886 0.194152 -0.251853 0.286963 0.393603 -0.099088 0.153309 
symbolic 0.041549 -0.050211 -0.326822 -0.138304 -0.066307 -0.412354 0.198587 -0.514823 -0.079576 -0.101733 
since 1.109054 -0.034641 -0.022535 -0.105266 -0.185487 0.542163 0.399683 -0.140274 -0.287545 0.093186 
bounding -0.265971 0.833050 -0.387050 0.559840 0.377324 -0.442649 0.330398 0.506453 0.404581 0.272693 
reduce -0.095350 0.397079 -0.370891 -0.151334 0.371480 -0.145919 0.207615 -0.021703 -0.226133 0.076700 
intervals 0.134754 0.113182 -0.644041 -0.179225 0.069643 -0.314437 -0.315446 -0.034142 -0.277819 0.203152 
validates 0.378712 0.035333 0.337024 -0.237433 -0.326259 0.082901 0.177640 -0.129724 0.152238 0.437344 
core 0.025807 0.251972 1.133104 0.041932 -0.077805 -0.704685 -0.132799 -0.695512 0.107066 0.287533 
rgb 0.213732 0.590011 -0.214326 -0.618489 -0.121321 -0.324120 -0.076269 -0.114960 -0.000720 -0.504660 
flow -0.091004 0.531059 -0.059916 -0.091207 -0.063681 -0.294576 -0.001871 0.017678 -0.151347 0.058470 
N 0.490465 0.283581 -0.616137 -0.390892 0.883259 -0.124586 -0.714368 -0.522090 -0.058848 0.079580 
evaluates -0.139995 0.330448 -0.906505 -0.372746 0.356703 -0.304904 0.216833 -0.071938 0.032313 0.101800 
pretty 0.244262 0.300262 -0.058525 -0.114642 -0.438144 0.017402 -0.042914 0.069535 -0.236389 -0.018793 
creating -0.135292 0.437740 0.725558 0.026450 -0.286669 -0.308333 0.210296 -0.024230 0.010187 0.366030 
wrapped 0.138427 0.036219 0.583381 0.279678 -0.235504 -0.230855 0.316426 -0.067080 -0.207115 0.376849 
generic 0.088323 0.325233 0.146754 0.235922 -0.058913 -0.081426 -0.009296 -0.403649 -0.465072 0.118923 
determines 0.244584 0.142292 0.002198 -0.337508 -0.329137 0.079609 0.158774 0.182088 -0.176180 0.564264 
solver 0.001429 0.291370 -0.144940 -0.277603 -0.204908 -0.148824 0.240598 0.051614 -0.246525 -0.184071 
registry -0.043228 0.300855 0.366434 0.241372 -0.310041 -0.062428 0.163372 0.032820 -0.238875 0.387250 
limits 0.174668 0.590678 -0.433981 0.194473 0.076572 0.121327 0.140424 0.588730 0.085500 0.282332 
raised 0.286787 -0.238962 0.377787 0.000644 -0.455448 0.179847 0.276484 -0.999202 -0.089532 0.773437 
represents 0.237525 0.458644 0.240167 -0.186962 -0.491668 -0.111264 -0.025327 -0.139204 0.306971 0.289750 
those 0.237198 0.271880 0.010489 0.044929 -0.381013 -0.318607 -0.079833 0.098258 -0.045360 0.400986 
help 0.524614 0.085042 0.186113 0.486746 -0.404186 -0.139550 0.056193 0.125041 -0.371260 0.058695 
button 0.426000 0.054589 0.076477 1.144907 0.356860 -0.082953 0.649667 0.479473 -0.570209 0.498371 
colors -0.027198 0.500114 -0.173529 0.095300 -0.244233 -0.142498 -0.097337 0.146888 -0.246029 -0.067702 
images 0.022030 0.618840 -0.094085 -0.328844 -0.036813 -0.243073 -0.018159 0.227534 0.016581 -0.056064 
positions 0.146255 0.395548 -0.475535 0.140432 -0.231583 -0.389481 -0.360955 0.530019 0.155004 0.324238 
patch -0.356417 0.487555 0.638986 0.652815 0.043763 0.110437 0.358187 -0.067521 -0.413422 0.462704 
public 0.366019 0.375974 -0.012206 0.290333 -0.259022 -0.127440 0.793050 -0.171510 0.809582 -0.112316 
cross 0.056910 0.314541 -0.522316 -0.243426 0.135620 -0.296277 -0.032590 0.348617 -0.206135 0.061457 
closed 0.504803 -0.563152 0.427597 -0.145411 -0.201863 0.022350 0.764900 0.348496 -0.220131 1.014985 
iteration 0.053127 0.062260 -0.294613 0.323171 0.095530 -0.245538 0.093211 0.064222 -0.467913 0.228803 
release 0.299500 -0.014570 0.253181 0.420682 0.046911 -0.058579 0.273482 0.212010 -0.426575 0.242668 
work 0.340227 -0.062296 0.226711 -0.080753 0.082658 0.096847 0.186014 0.040902 -0.592782 0.435919 
ready 0.542662 -0.225959 0.286690 -0.037891 -0.276973 0.177762 0.487263 0.030432 -0.248435 0.524675 
maps -0.020876 0.586327 -0.362815 -0.262704 -0.066374 -0.201281 -0.030755 0.119707 0.061295 0.237213 
warning 0.512365 -0.199461 0.396187 -0.100202 -0.184399 0.171253 0.314855 -0.304054 -0.292719 0.560328 
what 0.408356 -0.104893 0.204692 0.081686 -0.250648 0.015204 0.241399 0.124528 -0.405961 0.713306 
cached 0.243518 0.218180 0.022125 0.194407 -0.480534 -0.238493 0.323210 0.061112 -0.103226 0.282019 
difference 0.028143 0.439185 -0.761990 -0.421852 0.178970 -0.207297 -0.438556 0.346047 -0.191720 0.168857 
possibly 0.213961 0.282999 -0.052763 -0.123316 -0.236944 -0.128329 0.093639 -0.168805 0.050807 0.214988 
my 0.558308 0.113972 0.329236 -0.186460 -0.193030 -0.158967 0.300517 0.003189 0.008057 0.117423 
catalog 0.857185 0.662426 -0.626649 0.024444 0.148682 -0.839267 -0.039954 -0.657861 1.171912 -0.126096 
polynomials -0.338100 -0.012892 -1.599916 -0.258456 0.966459 -0.792130 -0.166760 -0.197817 -0.271106 0.086407 
pg 1.002060 0.702447 -1.092814 0.440587 0.447155 -0.757211 -0.062952 -0.678085 1.369751 -0.158958 
comparison 0.238984 0.035775 -0.207470 0.044787 0.477404 -0.220717 -0.306126 -0.208861 -0.035421 0.494479 
translate 0.170052 0.360554 -0.097132 -0.172831 -0.290356 -0.238971 -0.190995 -0.185132 -0.144664 -0.220183 
implemented 0.498564 -0.427804 0.382962 -0.019715 -0.232870 -0.031055 0.496027 -0.312610 -0.105447 0.889561 
resolve 0.246700 0.087780 0.364181 0.151312 -0.393779 -0.144319 0.111108 -0.281596 -0.315784 0.279493 
tasks 0.352846 -0.011110 0.192911 0.389970 -0.182619 -0.222083 -0.193100 -0.168124 -0.522094 0.471675 
coefficient -0.326907 0.137887 -1.013357 -0.361677 0.546087 -0.698587 -0.069804 0.112711 -0.060527 0.134521 
bar 0.263666 0.454951 0.181165 0.428722 0.256833 -0.376939 -0.161432 -0.047976 0.191532 0.009926 
applied -0.112173 0.446138 0.016669 -0.087676 0.024330 0.005225 0.145743 0.099760 -0.224369 0.637886 
directly 0.200090 0.195683 0.374481 -0.023701 -0.095637 -0.116226 0.228078 -0.148478 -0.155488 0.533638 
